#ifndef WEIGHTS_H
#define WEIGHTS_H

#include "cnn_top.h"

static const data_t CONV1_W[64][6][5] = {
    {
        {-0.478902, -0.258211, -0.123422, -0.176804, -0.084873},
        {-0.031058, 0.083064, 0.004024, -0.048623, 0.073661},
        {-0.023760, 0.024412, 0.076658, 0.196156, 0.179884},
        {0.206384, 0.097875, 0.129371, 0.193882, 0.288897},
        {-0.512632, -0.275504, 0.026232, 0.161018, 0.190160},
        {0.267628, 0.017454, 0.200527, 0.332572, 0.314212}
    },
    {
        {-0.199283, -0.172770, -0.207286, -0.100017, 0.109403},
        {-0.178594, -0.212538, -0.253753, -0.355501, -0.272497},
        {-0.000825, -0.187939, -0.273841, -0.424701, -0.072601},
        {0.077844, 0.053415, 0.100132, 0.215848, 0.199588},
        {0.085043, 0.000257, 0.008328, 0.002213, -0.195180},
        {-0.220032, -0.138868, -0.030102, 0.010748, 0.197066}
    },
    {
        {-0.119813, -0.277368, -0.141962, -0.202886, -0.115562},
        {-0.084001, 0.091294, 0.199645, 0.452257, 0.303327},
        {-0.163977, -0.094995, -0.019082, 0.057643, -0.063827},
        {-0.057058, 0.014911, 0.073656, 0.093801, 0.156960},
        {0.235920, 0.070116, 0.027296, -0.092220, -0.219429},
        {0.366454, 0.249551, 0.124566, -0.015401, -0.174159}
    },
    {
        {0.451453, 0.091708, -0.186702, -0.105684, -0.149299},
        {0.410893, 0.383489, -0.879645, -0.421029, -0.308404},
        {-0.461245, 0.032813, 0.500593, 0.059356, 0.044096},
        {0.357629, 0.152830, -0.071422, -0.075827, -0.018164},
        {-0.576562, -0.094173, 0.530724, 0.089561, -0.056195},
        {-1.085696, -0.228097, 0.025470, 0.034354, 0.683596}
    },
    {
        {0.283575, 0.316632, 0.286003, 0.167381, -0.335404},
        {0.321665, 0.012449, 0.035839, -0.103748, -0.133871},
        {0.394927, 0.235869, -0.014804, -0.035158, -0.248316},
        {0.346365, 0.132475, 0.219768, 0.067449, -0.227474},
        {0.219416, 0.086247, -0.436063, -0.348588, -0.446653},
        {0.116910, 0.043549, -0.000564, 0.333479, 0.516561}
    },
    {
        {0.015816, -0.013827, -0.019509, -0.084978, -0.067916},
        {-0.061337, -0.017337, 0.004311, -0.005859, 0.124818},
        {0.075994, 0.072658, 0.003343, 0.010325, -0.035929},
        {0.060756, 0.060949, 0.081569, 0.156702, 0.152595},
        {0.068959, 0.156399, 0.098187, -0.013084, -0.055768},
        {0.156200, 0.183781, 0.133479, 0.078293, -0.095651}
    },
    {
        {-0.018988, 0.048642, 0.118104, 0.136776, 0.277775},
        {0.406526, 0.189388, -0.007197, 0.132255, 0.065075},
        {-0.027369, -0.061071, -0.048208, -0.034040, -0.088343},
        {-0.040150, 0.056410, 0.072356, 0.225544, 0.267191},
        {-0.242448, -0.186899, -0.031993, 0.077231, 0.177998},
        {0.091031, -0.008562, -0.033219, -0.181043, -0.090568}
    },
    {
        {-0.067430, -0.306503, -0.241141, -0.283858, -0.185231},
        {0.189203, 0.086066, -0.058637, -0.102493, 0.043193},
        {-0.300765, -0.106731, 0.089855, 0.174492, 0.026016},
        {0.033810, -0.085842, -0.141515, -0.180439, -0.059303},
        {-0.234104, -0.241798, -0.130202, -0.167493, -0.067701},
        {-0.000479, -0.056143, 0.090376, 0.031115, -0.106085}
    },
    {
        {0.348503, 0.128943, 0.181915, 0.119250, -0.282937},
        {-0.111074, -0.182068, -0.169358, -0.425243, -0.155934},
        {-0.508674, -0.214055, 0.179436, 0.256559, 0.169775},
        {0.123172, 0.052917, 0.086420, -0.209824, 0.023546},
        {-0.133907, -0.138824, -0.277116, -0.156950, 0.008797},
        {-0.703716, -0.291044, 0.013509, 0.017574, 0.477544}
    },
    {
        {-0.732714, -0.161245, 0.306205, 0.694564, -0.032159},
        {-0.318004, 0.128607, 0.192229, -0.053752, -0.340583},
        {0.729077, 0.804756, -0.015074, -0.161446, -0.927674},
        {1.143735, 0.011970, -0.720702, -0.687642, 0.324720},
        {-0.549812, 0.372443, 0.849666, 1.625456, -1.527030},
        {-0.593992, -0.490857, 0.443606, 0.852811, -0.246024}
    },
    {
        {0.019549, -0.141305, -0.112762, -0.088682, 0.416626},
        {0.128216, -0.251449, -0.186737, -0.237623, -0.140772},
        {-0.457041, 0.206031, 1.042469, 0.329832, -0.352943},
        {0.271027, 0.075327, -0.023804, 0.163283, -0.176147},
        {-0.711408, -0.665626, 0.191733, 0.496044, 0.527869},
        {-0.788001, -0.322921, -0.034728, 0.454351, 0.692866}
    },
    {
        {-0.076884, 0.073364, 0.150334, 0.352371, 0.463054},
        {0.163825, 0.102448, 0.074463, -0.173968, 0.032328},
        {-0.092912, 0.030779, 0.057436, 0.203993, -0.005642},
        {-0.003483, 0.055273, 0.015196, -0.026000, 0.026392},
        {0.112502, 0.119404, 0.068327, 0.042062, 0.042221},
        {0.006503, -0.027208, -0.134713, -0.199325, -0.198674}
    },
    {
        {-0.179157, -0.128437, 0.095249, 0.031292, 0.313109},
        {-0.273172, -0.234172, -0.265982, -0.226545, -0.377979},
        {0.036477, -0.080754, 0.014399, 0.157148, 0.113582},
        {0.420527, 0.564242, 0.270297, 0.094509, -0.188494},
        {0.326553, 0.447427, 0.278920, 0.115341, -0.069621},
        {0.184836, 0.018352, 0.043127, -0.026449, 0.022325}
    },
    {
        {-0.581023, -0.242404, 0.182411, -0.411597, 0.569233},
        {0.795689, 0.666496, -0.725860, -0.687247, -0.345028},
        {-0.635439, -0.637940, 0.577223, 1.090160, 0.234086},
        {-0.020924, -0.196251, 0.213220, 0.348140, -0.066283},
        {0.545716, 0.808894, 0.579834, -0.176318, -1.306149},
        {0.225273, -0.273167, 0.466062, 0.213216, -0.863226}
    },
    {
        {-0.002686, -0.034383, 0.002946, -0.065909, -0.112217},
        {-0.000899, -0.044172, -0.132902, -0.319670, -0.199505},
        {0.075823, 0.119475, 0.076997, 0.170817, 0.142546},
        {-0.044301, -0.002007, 0.014586, -0.060452, -0.045496},
        {0.047208, -0.013521, -0.106336, -0.123548, -0.160708},
        {-0.010779, -0.060296, -0.097730, -0.135486, -0.091212}
    },
    {
        {-0.234774, -0.183491, 0.005549, -0.267605, 0.090284},
        {0.135243, 0.021701, 0.104935, 0.358596, 0.292571},
        {-0.226217, 0.198145, -0.180847, 0.147738, 0.413109},
        {0.224889, 0.264410, -0.040912, -0.319019, -0.254950},
        {0.090391, 0.342944, 0.300952, -0.159185, -0.030770},
        {-0.903488, -0.588980, -0.025852, 0.286026, 0.910236}
    },
    {
        {0.032169, -0.092641, 0.171551, 0.173150, -0.365150},
        {-0.165584, 0.021809, 0.252348, 0.366538, -0.311090},
        {0.100257, -0.293822, -0.782686, -0.428369, 0.715347},
        {0.275497, 0.154474, -0.016367, -0.362773, -0.031091},
        {-0.444897, -0.133412, 0.092720, 0.561281, 0.125630},
        {0.018647, -0.177322, -0.165113, 0.249854, 0.587737}
    },
    {
        {-0.329895, -0.130783, -0.025906, 0.001422, -0.168525},
        {0.041902, -0.016107, -0.030855, -0.257260, -0.428471},
        {0.334677, 0.218820, 0.162429, 0.292107, 0.618490},
        {0.115273, 0.131198, 0.135022, 0.100329, 0.152182},
        {0.207400, 0.010629, 0.116434, 0.119491, 0.344099},
        {0.215105, -0.101049, -0.059812, 0.047433, -0.024693}
    },
    {
        {-0.100515, 0.003647, -0.042442, 0.069515, -0.010936},
        {0.006605, 0.080399, 0.257425, 0.352320, 0.273514},
        {0.107341, 0.082980, 0.242076, 0.307778, 0.330933},
        {0.221242, 0.144129, 0.198034, 0.303296, 0.092886},
        {0.227687, 0.185435, 0.051241, -0.007731, 0.121902},
        {-0.162825, -0.096060, -0.007114, 0.046658, 0.214493}
    },
    {
        {-0.115725, -0.026436, -0.031451, -0.336215, -0.685697},
        {-0.274412, 0.056014, 0.048902, 0.108629, -0.091698},
        {0.416796, 0.065535, 0.119835, -0.098537, -0.111366},
        {0.384507, 0.089489, -0.053736, -0.137810, -0.066032},
        {0.056885, 0.122023, 0.018357, 0.209224, 0.330996},
        {0.533212, 0.109696, -0.000890, -0.050522, -0.185578}
    },
    {
        {-0.154764, -0.151091, -0.123325, -0.192516, 0.070996},
        {-0.177535, 0.020655, 0.199328, 0.332243, -0.202351},
        {0.246968, 0.115179, -0.000555, -0.302499, -0.037416},
        {0.160293, -0.009638, -0.239185, -0.467588, 0.071657},
        {0.168233, 0.236005, 0.175648, 0.212705, 0.262842},
        {0.241347, -0.044441, -0.254067, -0.401102, -0.305567}
    },
    {
        {0.137483, 0.056749, -0.034041, -0.160968, -0.321034},
        {-0.380968, -0.377537, 0.289415, 1.903606, -0.066437},
        {0.240133, 0.109214, 0.119143, -0.250237, 0.037853},
        {-0.037450, -0.092578, 0.045932, -0.056253, 0.352917},
        {-0.376039, -0.138770, 0.003827, -0.033540, 0.019734},
        {-0.243208, -0.106573, 0.144028, -0.137759, 0.434271}
    },
    {
        {-0.305403, -0.211318, -0.039344, -0.063315, 0.009139},
        {0.575890, 0.035296, -0.058514, -0.313210, -0.017125},
        {-0.671744, -0.147454, 0.310511, 0.404137, 0.132776},
        {0.046859, 0.396090, 0.127874, 0.149826, 0.273441},
        {-0.659289, -0.943134, 0.419289, 0.285956, 0.248322},
        {-0.199781, 0.068682, 0.384863, 0.111786, 0.171877}
    },
    {
        {0.514375, 0.402490, 0.049794, -0.025101, -0.237834},
        {-0.325513, -0.237255, -0.269382, 0.008189, -0.085031},
        {-0.030149, -0.146827, -0.148634, -0.123246, -0.145560},
        {-0.175523, 0.017367, 0.022079, 0.250704, 0.538985},
        {0.390883, 0.098847, -0.378065, -0.101435, -0.331686},
        {0.488744, 0.453707, 0.332310, -0.261659, -0.712310}
    },
    {
        {-0.809021, -0.186247, 0.151782, 0.386249, 0.468136},
        {-0.426112, -0.117916, 0.502014, -0.388713, -0.401188},
        {0.665572, 0.384719, -0.050115, -0.537982, -0.197585},
        {0.542678, -0.050494, 0.138156, 0.124213, -0.065574},
        {0.919158, 0.151280, -0.543272, -0.523980, -0.200377},
        {0.272507, -0.172808, -0.070821, -0.349894, -0.323820}
    },
    {
        {-0.051765, 0.086031, -0.378668, -0.059260, -0.115766},
        {-0.234251, -0.205636, 0.195655, 0.200480, 0.227971},
        {0.036949, 0.032781, -0.122649, -0.357711, -0.126159},
        {-0.090799, -0.007035, -0.166385, 0.030339, 0.028851},
        {0.315931, 0.038646, -0.066920, -0.204553, -0.184035},
        {0.483795, 0.323525, 0.068476, -0.035369, -0.223402}
    },
    {
        {-0.026340, -0.063580, 0.008243, 0.022335, -0.034518},
        {-0.067331, -0.233250, -0.282077, -0.240056, 0.189080},
        {-0.197246, -0.115223, -0.017456, -0.008049, -0.013333},
        {-0.075246, -0.014624, -0.216700, -0.076712, 0.157159},
        {0.467363, 0.186131, 0.140988, -0.025098, -0.153660},
        {0.246680, 0.032290, -0.055189, -0.338092, -0.604183}
    },
    {
        {-0.779433, -0.261347, -0.118409, 0.041994, 0.043289},
        {0.110167, -0.014573, 0.007684, -0.168212, -0.245165},
        {-0.221957, -0.148163, -0.126085, 0.064778, 0.017109},
        {-0.067652, 0.231487, 0.157387, 0.194210, 0.062782},
        {0.186540, -0.077545, 0.028520, -0.094865, -0.002342},
        {-0.043062, -0.067502, -0.029471, 0.004166, 0.275625}
    },
    {
        {-0.306150, -0.142357, -0.095962, -0.157938, 0.049941},
        {0.035002, -0.117689, -0.066070, -0.188709, -0.102528},
        {0.177414, 0.126678, 0.023688, -0.119378, -0.383909},
        {0.214484, 0.030485, -0.110760, -0.233548, -0.325712},
        {-0.346458, -0.110572, 0.063731, 0.184336, 0.276638},
        {0.174644, 0.065753, 0.020408, 0.015471, 0.058680}
    },
    {
        {0.531056, 0.289180, 0.163922, -0.686320, -1.228196},
        {-0.172205, -0.343194, -0.352020, -0.098594, 0.685748},
        {0.043111, 0.030319, 0.240159, -0.111181, -0.424179},
        {0.193112, 0.017348, -0.094381, -0.029053, -0.073532},
        {-0.156507, -0.111613, -0.210709, 0.010801, 0.053813},
        {0.004424, -0.256052, -0.254418, 0.111557, 0.212372}
    },
    {
        {0.029409, -0.064981, 0.008787, 0.206566, 0.231358},
        {-0.461156, -0.163263, 0.033137, 0.131922, 0.121198},
        {-0.046185, -0.254441, -0.233063, -0.108126, 0.086138},
        {0.114886, -0.034803, -0.086741, -0.042598, 0.039663},
        {-0.123266, -0.189849, -0.030515, 0.018661, -0.028570},
        {-0.223712, -0.008806, -0.107915, -0.129476, -0.160714}
    },
    {
        {-0.017307, -0.098578, 0.217494, 0.074204, 0.112654},
        {0.413057, 0.184764, 0.457377, -0.358505, -0.507662},
        {-0.576453, -0.644279, -0.555019, 0.669061, 0.744050},
        {-0.077627, 0.095725, 0.044379, 0.114544, 0.031060},
        {0.419142, 0.097488, -0.166130, -0.099840, -0.373698},
        {-0.737297, -0.521637, -0.032771, 0.529536, 0.255761}
    },
    {
        {0.232776, 0.190386, 0.095125, -0.123620, -0.153861},
        {0.062434, 0.068486, -0.123641, 0.075289, 0.094213},
        {0.094534, -0.051265, -0.170339, -0.275145, -0.196466},
        {0.150077, 0.341582, 0.229220, 0.281686, 0.298312},
        {-0.230675, -0.087654, 0.025228, 0.136855, 0.161770},
        {0.032398, 0.112756, 0.048660, -0.062174, -0.079740}
    },
    {
        {-0.169049, 0.138157, -0.196960, -0.153016, 0.114024},
        {0.106553, 0.380094, 0.451872, -0.185296, -0.246450},
        {0.626890, 0.247512, -0.092725, 0.523637, -0.358894},
        {0.296988, -0.080685, -0.052070, 0.046868, 0.056759},
        {-0.613161, -0.263924, 0.562760, 0.490665, 0.770425},
        {0.242068, -0.142729, 0.027748, 0.169276, -0.210420}
    },
    {
        {0.092737, -0.001770, 0.016900, 0.069246, 0.073328},
        {-0.218662, -0.062819, -0.122685, -0.133623, -0.219661},
        {-0.065012, -0.077994, -0.027749, -0.106655, 0.036164},
        {-0.153243, -0.060820, -0.006416, 0.172797, 0.264525},
        {0.039580, -0.033969, -0.194951, -0.110747, -0.247902},
        {0.273065, 0.233010, 0.125320, 0.004088, -0.070325}
    },
    {
        {0.026850, -0.015849, -0.015018, 0.116195, 0.075315},
        {0.003844, 0.072386, 0.045764, -0.005868, 0.013227},
        {-0.002656, -0.076884, 0.008181, 0.000159, -0.030490},
        {-0.087084, -0.146801, -0.289815, -0.216289, -0.008483},
        {-0.045791, -0.076050, -0.010829, -0.012073, 0.044649},
        {0.030763, -0.064720, -0.105669, -0.251878, -0.177591}
    },
    {
        {-0.724679, -0.461256, 0.080701, 0.277516, 0.603429},
        {-0.185195, -0.019602, -0.150079, -0.019960, 0.272137},
        {-0.059255, -0.068177, -0.089571, -0.034692, 0.039773},
        {-0.187029, -0.066632, 0.248029, 0.713834, 0.337805},
        {0.031919, -0.097662, 0.218743, 0.627770, 0.201668},
        {-0.412482, -0.345903, 0.092247, 0.479307, 0.197832}
    },
    {
        {0.293192, 0.094448, 0.001908, -0.027628, -0.181485},
        {0.206657, -0.019971, -0.007151, -0.100622, 0.306169},
        {-0.042759, 0.132134, -0.091442, 0.176769, -0.101689},
        {0.891852, 1.015200, -0.108341, -1.009844, -0.866495},
        {0.308507, 0.154643, 0.213173, -0.168616, -0.103140},
        {0.854310, 0.780279, -0.129266, -0.769981, -0.582947}
    },
    {
        {-0.084952, -0.048414, -0.051520, -0.095199, -0.267734},
        {-0.197601, 0.110714, -0.063894, -0.083892, -0.159902},
        {0.237895, -0.123921, 0.071242, 0.363140, 0.168425},
        {0.521019, 0.195911, -0.149480, -0.152948, -0.324074},
        {0.188095, 0.251454, 0.235771, 0.376229, -0.116506},
        {0.314509, 0.136955, 0.178818, 0.229175, -0.290125}
    },
    {
        {0.136275, 0.173646, 0.156240, 0.186923, 0.144892},
        {0.108106, 0.083224, 0.047260, 0.067811, 0.074247},
        {-0.016636, -0.010874, 0.058337, 0.014468, -0.044703},
        {0.134503, 0.134305, 0.050175, 0.061894, 0.032729},
        {0.163464, 0.093150, -0.035907, -0.027939, -0.136872},
        {0.096846, 0.085186, 0.061768, 0.083428, -0.009522}
    },
    {
        {0.255083, 0.011095, 0.033811, -0.270408, -0.863929},
        {0.327435, -0.002411, -0.294360, 0.192851, -0.037433},
        {-0.459183, -0.292968, -0.187250, -0.074137, 0.815321},
        {-0.277962, -0.298055, 0.796788, 0.552923, -0.131814},
        {0.045621, -0.114757, 0.178388, 0.399763, -0.224633},
        {-0.021723, -0.151771, 0.709416, 0.254865, -0.301727}
    },
    {
        {0.093263, 0.033825, -0.070250, -0.278065, -0.048290},
        {-0.322449, -0.092785, 0.164748, 0.385623, 0.016141},
        {0.089165, 0.070765, 0.012126, -0.136592, -0.145825},
        {0.224837, -0.112898, -0.488820, -0.812710, 0.388960},
        {-0.163575, -0.072113, -0.001042, 0.128688, 0.169014},
        {0.188260, 0.081021, 0.013153, 0.188043, 0.029089}
    },
    {
        {-0.188611, -0.102894, 0.010930, -0.069792, 0.172125},
        {0.265239, 0.212871, 0.018088, -0.158138, -0.267624},
        {-0.271712, -0.317807, -0.084481, 0.109277, 0.049412},
        {-0.275587, -0.278723, 0.051686, 0.220347, 0.255533},
        {-0.271166, -0.095068, -0.051404, -0.100802, 0.173142},
        {-0.211842, -0.073555, 0.061626, 0.170561, 0.461040}
    },
    {
        {-0.081316, -0.074189, 0.006938, -0.049374, -0.044925},
        {0.019185, -0.055303, -0.071979, -0.189528, -0.079505},
        {-0.038203, -0.026166, 0.042210, 0.127529, 0.137115},
        {0.018887, 0.022985, -0.015480, -0.001813, -0.067467},
        {0.130108, 0.124604, 0.133404, 0.047720, 0.167129},
        {0.038627, 0.065321, 0.159027, 0.148756, 0.274281}
    },
    {
        {0.131697, 0.163490, 0.145648, 0.065649, -0.014527},
        {0.196298, 0.056356, -0.215107, -0.088812, -0.063256},
        {-0.087759, -0.057947, 0.298117, 0.172367, 0.138600},
        {-0.061574, -0.100410, 0.124707, -0.070665, 0.129596},
        {0.227836, 0.267746, 0.171574, 0.037247, -0.165125},
        {-0.383617, -0.143959, -0.016143, -0.062661, 0.313020}
    },
    {
        {-0.437069, -0.257291, -0.077983, 0.117146, 0.213623},
        {-0.009241, -0.024914, -0.003777, -0.279624, -0.501170},
        {0.027286, -0.043487, -0.016016, -0.041949, -0.078983},
        {-0.198759, -0.023655, 0.061025, -0.018720, 0.034128},
        {-0.015057, 0.075462, 0.158697, 0.211477, 0.202642},
        {0.088801, 0.270484, 0.224479, 0.350891, -0.139391}
    },
    {
        {-0.672374, -0.153897, -0.131804, -0.029276, -0.315858},
        {0.032831, 0.214188, 0.044884, -0.058503, -0.078871},
        {-0.047157, 0.008316, 0.180611, 0.227524, 0.248024},
        {0.013984, 0.006037, -0.089414, -0.022171, -0.038198},
        {0.034669, -0.032488, 0.018165, 0.087888, 0.116655},
        {-0.059239, -0.209936, -0.037065, 0.027631, 0.186550}
    },
    {
        {-0.334404, -0.143211, -0.125241, 0.054713, 0.064624},
        {-0.125407, -0.221802, -0.112029, -0.107052, 0.255089},
        {0.526431, 0.321343, 0.164739, -0.084999, -0.317420},
        {0.151169, -0.106853, -0.040551, 0.191295, 0.085565},
        {-0.456584, -0.285157, 0.073812, -0.367821, 0.084097},
        {-0.021695, 0.184379, 0.035700, -0.449953, -0.140115}
    },
    {
        {0.056141, 0.189483, 0.058133, 0.258777, 0.114103},
        {-0.217991, -0.138086, -0.214762, -0.235924, 0.216492},
        {-0.538760, -0.268316, -0.017834, 0.028701, 0.123651},
        {-0.093533, 0.150517, 0.102469, 0.320021, 0.353266},
        {0.333756, 0.013103, -0.149323, -0.139372, -0.173487},
        {-0.251804, -0.136109, -0.133407, -0.224630, -0.208508}
    },
    {
        {0.188599, 0.049682, 0.028254, 0.182234, 0.052060},
        {0.077861, 0.031563, 0.124696, 0.019291, 0.576103},
        {0.029650, 0.045350, -0.052561, 0.216633, -0.065893},
        {0.064078, 0.058758, 0.136847, -0.034676, 0.315206},
        {-0.285764, -0.077256, 0.002381, 0.322743, 0.466688},
        {-0.387053, -0.235983, -0.196530, 0.104505, -0.108271}
    },
    {
        {-0.111584, -0.098699, -0.029699, -0.022683, 0.089123},
        {0.023067, -0.025890, -0.123002, -0.070340, -0.028862},
        {0.199736, 0.185510, 0.208508, 0.256893, -0.001776},
        {0.195574, 0.148570, 0.116324, 0.154469, -0.049347},
        {-0.008805, -0.120037, -0.248341, -0.317671, -0.204524},
        {0.207790, 0.075240, -0.038038, -0.237937, -0.253995}
    },
    {
        {-0.146178, -0.111419, 0.108989, 0.141227, 0.208262},
        {0.079126, 0.018798, -0.114699, -0.175504, 0.093240},
        {-0.027838, -0.089169, -0.014841, 0.015543, -0.129815},
        {0.146458, 0.013895, -0.150326, -0.828659, -0.145937},
        {-0.038108, 0.016692, -0.033070, -0.116836, -0.096438},
        {-0.178957, -0.092807, 0.024743, 0.107934, 0.173089}
    },
    {
        {-0.431545, 0.177434, 0.267641, -0.409754, 0.032265},
        {-1.010324, 0.580284, 0.303544, -0.042372, -0.468606},
        {0.349696, 0.218997, -0.118840, -0.053468, -0.389142},
        {0.730327, 0.775862, -1.096915, -0.877666, 0.459214},
        {0.084876, 0.403274, 0.733960, -0.992866, -0.424799},
        {0.384026, 0.291249, 0.503367, -0.441476, -0.651397}
    },
    {
        {-0.079188, 0.240079, 0.415494, 0.386430, 0.164512},
        {0.332801, 0.228079, -0.105531, -0.114248, -0.352144},
        {-0.232535, -0.070907, 0.169463, 0.227158, 0.317190},
        {-0.020280, 0.217168, 0.004551, -0.083049, 0.007152},
        {0.324053, 0.148603, -0.011773, 0.062386, -0.190348},
        {0.176321, 0.133805, -0.002658, -0.007698, -0.084396}
    },
    {
        {0.273404, 0.226796, 0.305720, 0.173911, 0.039404},
        {0.001304, -0.179963, -0.229878, 0.185286, 0.588180},
        {0.167394, 0.147722, -0.018596, -0.133390, -0.380462},
        {-0.033649, -0.253597, -0.117039, -0.189780, -0.106873},
        {0.041765, 0.013206, 0.031407, -0.041713, 0.128891},
        {0.390248, 0.163081, 0.010982, -0.104106, -0.143923}
    },
    {
        {0.187908, 0.128401, 0.086901, -0.097870, -0.085128},
        {-0.128622, -0.075840, -0.067185, 0.152327, -0.037284},
        {0.022375, -0.107381, -0.096923, -0.319095, -0.153778},
        {0.098403, 0.163198, 0.190792, 0.335142, 0.120959},
        {-0.153884, -0.106395, -0.051099, -0.018474, 0.134344},
        {-0.224100, -0.173804, -0.107529, -0.312913, -0.012722}
    },
    {
        {0.036169, 0.103059, -0.076434, 0.022084, -0.076777},
        {-0.039343, -0.022120, 0.203109, 0.372320, 0.504526},
        {0.164784, 0.114418, 0.104309, 0.308249, 0.329510},
        {0.130715, 0.079109, 0.046278, 0.006172, 0.043096},
        {0.139288, 0.072540, -0.204511, -0.130201, -0.109081},
        {-0.123160, -0.026594, 0.002114, 0.055258, 0.081856}
    },
    {
        {-0.355150, -0.097354, 0.100898, 0.065696, 0.270961},
        {-0.228492, -0.075232, -0.122571, 0.140117, -0.372318},
        {-0.340535, -0.209963, 0.647511, -0.081947, 0.185632},
        {0.000817, 0.307145, 0.094167, -0.318587, -0.485665},
        {0.343578, 0.529486, 0.687158, -0.588216, -0.481517},
        {0.255322, 0.107364, 0.272527, -0.251248, -0.137662}
    },
    {
        {-0.105949, -0.192209, -0.013560, 0.031294, 0.466484},
        {-0.026548, 0.042222, -0.017474, -0.038015, 0.530702},
        {-0.214420, -0.150322, 0.113639, 0.434433, 0.239328},
        {0.187614, 0.119187, 0.218234, 0.310510, -0.098068},
        {0.371756, 0.094166, 0.002969, -0.191524, -0.615463},
        {0.093010, -0.003255, -0.093193, -0.104773, -0.216977}
    },
    {
        {-0.751028, -0.228635, 0.330640, 0.494923, 0.308404},
        {0.213278, -0.117146, -0.239986, 0.070429, 0.071744},
        {0.321177, 0.080223, -0.291958, -0.180078, -0.669122},
        {0.098224, -0.103066, -0.261442, 0.196423, 0.150336},
        {-0.829693, -0.278949, 0.113280, 0.434636, 0.387802},
        {0.107665, 0.353635, 0.013424, 0.138871, -0.136843}
    },
    {
        {0.419559, 0.188760, 0.214268, 0.220030, -0.206332},
        {0.248002, -0.034282, -0.179902, -0.272194, -0.321391},
        {0.069270, 0.122855, 0.188260, 0.299049, 0.321309},
        {0.154386, 0.120652, 0.058159, -0.093734, -0.109901},
        {-0.103393, -0.077441, -0.140321, -0.055224, 0.026577},
        {-0.090385, -0.108082, 0.042181, 0.126803, 0.604541}
    },
    {
        {0.611477, 0.351882, 0.164318, -0.257580, -0.409878},
        {-0.176354, -0.011894, 0.071958, 0.368216, 0.145256},
        {-0.031189, 0.122910, 0.195937, 0.017074, 0.212456},
        {0.160832, 0.279341, 0.081302, 0.274449, 0.360378},
        {-0.116872, -0.226543, -0.222663, -0.080123, 0.083741},
        {0.029363, -0.216506, 0.136796, -0.362771, -0.245823}
    },
    {
        {-0.180243, -0.123237, 0.038578, 0.122565, 0.074879},
        {0.509065, 0.541489, 0.374122, -0.118185, -0.352857},
        {0.056551, 0.076851, 0.088579, 0.046892, 0.079900},
        {0.063181, 0.069147, 0.078924, 0.127690, 0.071199},
        {-0.067760, -0.085385, 0.007796, 0.055758, 0.059159},
        {0.201360, 0.053126, -0.064129, 0.028784, 0.030166}
    },
    {
        {-0.136039, -0.073732, -0.044203, -0.100912, -0.015900},
        {0.088113, 0.101954, 0.020268, -0.051271, -0.126913},
        {-0.112759, -0.050914, -0.000516, -0.140094, -0.037614},
        {-0.123470, 0.030612, 0.230794, 0.210878, 0.326108},
        {0.314245, 0.090639, 0.012214, 0.103472, 0.059625},
        {0.108958, -0.051027, -0.219233, -0.373965, -0.419426}
    }
};

static const data_t CONV1_B[64] = {-0.956224, -0.571696, -0.861178, -0.366014, -0.386914, 0.054283, -0.597864, -0.827134, -1.067466, -0.388453, -0.350522, -0.452039, -0.778499, -0.936014, -0.040960, -0.199154, -0.650355, -1.036781, -0.627457, -0.840467, -0.545527, -0.842822, -0.545796, -0.646629, -0.139063, -0.485109, 0.020247, -0.236120, -0.175040, 0.027630, -0.977223, -0.740139, -0.826050, -0.187973, -0.044365, 0.115444, -0.839827, -0.280307, -0.538445, -0.100011, -0.638669, -0.530134, 0.170744, 0.323148, -0.126620, -1.306475, -0.405278, -0.340241, -0.530863, -0.886222, -0.148219, -0.332828, -0.433462, -0.563426, -0.833324, -1.397420, -0.079043, -0.618727, -0.440699, -0.401604, -0.960487, -1.361613, -0.021138, -0.155141};

static const data_t CONV2_W[32][64][3] = {
    {
        {0.026577, -0.207664, -0.506636},
        {-0.049546, -0.177533, -0.200122},
        {0.350000, 0.139142, -0.190916},
        {0.315534, 0.142151, -0.006539},
        {0.063415, -0.033458, 0.058311},
        {-0.039207, -0.025285, 0.006350},
        {0.134083, 0.121560, 0.173949},
        {0.287032, 0.257169, 0.285556},
        {0.279111, 0.141658, 0.015606},
        {0.118933, -0.041581, -0.255748},
        {0.095226, -0.155664, -0.301944},
        {0.079772, 0.004739, 0.000527},
        {0.123242, -0.027281, -0.189891},
        {-0.099482, -0.193750, 0.236887},
        {0.043105, 0.001734, 0.302781},
        {-0.012969, -0.301194, -0.161868},
        {0.089952, -0.087426, 0.044773},
        {-0.361259, -0.141066, 0.123420},
        {-0.125702, -0.263396, -0.331754},
        {-0.376903, 0.157264, 0.257839},
        {0.122472, 0.014176, -0.083660},
        {0.086307, -0.141792, -0.058884},
        {0.180715, -0.090182, -0.228493},
        {0.024436, -0.048305, -0.219016},
        {0.095709, -0.150534, -0.029328},
        {0.324938, 0.061017, -0.201173},
        {-0.035201, 0.133270, 0.100882},
        {-0.469687, -0.228672, -0.006533},
        {-0.281601, -0.216852, -0.195565},
        {-0.132778, -0.049123, 0.333667},
        {0.055890, -0.033743, -0.064383},
        {0.279441, -0.048534, -0.012079},
        {0.109187, 0.061776, -0.037958},
        {-0.039400, 0.149393, -0.224361},
        {0.330103, -0.000998, -0.035134},
        {0.172061, 0.069693, 0.016303},
        {0.173655, 0.138886, -0.110211},
        {0.153116, 0.049365, -0.260071},
        {-0.146837, 0.155542, 0.184662},
        {-0.007175, 0.035360, 0.064522},
        {0.179596, 0.054532, 0.169561},
        {-0.101278, -0.306475, -0.328034},
        {0.269224, 0.012160, -0.137403},
        {-0.078042, 0.153437, 0.053675},
        {0.129097, 0.087972, 0.107685},
        {0.049571, -0.089844, -0.217078},
        {-0.663195, -0.314561, -0.044803},
        {0.159613, 0.027872, -0.093626},
        {0.142912, -0.058401, -0.149729},
        {-0.004298, 0.054778, 0.140585},
        {0.087245, -0.119744, 0.046389},
        {-0.241708, -0.341107, -0.386669},
        {0.056245, 0.134576, 0.246662},
        {-0.082647, -0.072118, -0.141788},
        {-0.073393, -0.117125, -0.168496},
        {0.005445, 0.025675, 0.017518},
        {-0.153610, -0.211728, -0.311591},
        {0.287337, 0.043684, -0.134908},
        {0.007284, -0.107122, -0.287983},
        {0.005122, 0.078975, 0.073561},
        {0.086014, -0.026382, -0.028544},
        {0.179176, 0.123307, 0.146910},
        {0.068404, -0.153748, -0.186741},
        {-0.088643, -0.073362, 0.206767}
    },
    {
        {-0.204047, -0.255682, 0.042258},
        {0.059455, 0.169498, 0.250527},
        {-0.176514, -0.160788, -0.275444},
        {-0.025588, -0.174627, 0.024516},
        {0.035574, 0.071573, 0.047924},
        {-0.052702, -0.250058, -0.290940},
        {-0.049748, -0.037193, 0.020523},
        {-0.298876, -0.214719, -0.018573},
        {0.200829, 0.060457, -0.060695},
        {0.076329, -0.098039, -0.029917},
        {-0.190080, -0.306187, -0.107341},
        {0.009756, -0.008705, -0.060266},
        {0.023925, -0.113836, 0.014145},
        {0.345143, 0.060687, 0.074728},
        {-0.046645, -0.020028, -0.019126},
        {-0.139727, -0.006255, -0.194142},
        {-0.010349, 0.041213, 0.026253},
        {-0.105596, -0.212443, -0.220962},
        {0.101703, 0.082572, 0.099304},
        {0.167035, -0.191273, -0.382398},
        {0.036564, -0.058379, 0.081993},
        {-0.122075, -0.015078, -0.011024},
        {-0.190744, -0.223968, 0.119751},
        {0.039103, 0.155706, 0.045199},
        {0.050105, -0.004952, 0.086461},
        {-0.188433, -0.166951, -0.241846},
        {0.087046, 0.063428, 0.069934},
        {-0.138697, -0.046128, -0.105050},
        {0.132807, -0.077090, -0.005133},
        {0.096568, 0.020089, 0.052080},
        {-0.075117, -0.016782, 0.026638},
        {-0.065083, -0.229800, -0.220992},
        {-0.069715, -0.008366, 0.037178},
        {0.125483, -0.192304, 0.057872},
        {-0.019443, 0.061208, -0.023765},
        {-0.011286, -0.036247, 0.017461},
        {-0.188698, -0.069912, -0.009081},
        {-0.009153, -0.060798, 0.101851},
        {0.066022, -0.312780, -0.335872},
        {0.064617, 0.065682, 0.084906},
        {-0.240110, -0.244620, -0.132721},
        {-0.226923, -0.139929, -0.113500},
        {-0.046193, -0.046887, 0.134751},
        {-0.094746, -0.142807, -0.059701},
        {0.028388, 0.049850, 0.060052},
        {0.074228, 0.076301, 0.087269},
        {0.056652, 0.006998, -0.067319},
        {-0.279011, -0.131876, 0.041943},
        {-0.136206, -0.005158, -0.087894},
        {-0.160002, -0.073446, 0.003991},
        {-0.209908, -0.111984, 0.000485},
        {-0.040689, -0.019793, -0.027397},
        {0.244104, -0.259373, -0.098677},
        {0.184007, 0.131744, 0.049074},
        {0.017845, 0.072918, 0.077807},
        {-0.088175, 0.010068, 0.034934},
        {0.059034, 0.079426, 0.103731},
        {0.262649, -0.006336, 0.133720},
        {-0.182262, -0.049109, -0.036461},
        {0.035908, 0.077334, 0.007229},
        {0.121656, 0.043841, -0.050222},
        {-0.110152, 0.066367, 0.089362},
        {0.135903, 0.102526, 0.072471},
        {-0.038226, 0.034173, 0.023655}
    },
    {
        {-0.058732, -0.145506, -0.147878},
        {-0.012231, -0.065028, -0.200202},
        {-0.032774, 0.142224, 0.141945},
        {-0.088419, -0.058637, 0.008807},
        {-0.094305, -0.076363, -0.054684},
        {-0.027106, -0.046177, 0.055779},
        {-0.180539, -0.036584, -0.043995},
        {0.190772, 0.141451, 0.144447},
        {-0.076721, 0.056350, 0.207191},
        {0.113426, 0.113652, 0.073918},
        {0.343793, 0.049773, -0.076021},
        {0.067851, 0.046104, 0.017238},
        {-0.281124, -0.335461, -0.245799},
        {-0.150434, -0.377636, -0.140667},
        {0.018363, -0.063232, 0.081519},
        {0.070016, -0.115102, -0.153194},
        {-0.045248, 0.081259, 0.059075},
        {-0.201345, -0.347450, -0.284853},
        {0.085904, 0.102749, 0.135455},
        {-0.007702, 0.001144, -0.057694},
        {-0.285962, -0.369715, -0.340130},
        {-0.296813, -0.226222, -0.032856},
        {-0.025837, -0.031542, 0.007242},
        {-0.048122, -0.080107, 0.107325},
        {-0.130562, 0.069032, -0.120384},
        {0.128378, 0.232912, 0.104520},
        {-0.229444, -0.205289, 0.003553},
        {-0.073882, -0.208120, -0.153592},
        {0.403445, 0.134257, -0.038256},
        {0.080858, 0.035103, -0.121269},
        {0.191684, 0.159714, -0.004347},
        {-0.166305, -0.003661, 0.049451},
        {-0.100276, 0.078755, 0.188597},
        {0.110590, 0.088720, 0.184026},
        {0.022363, 0.035040, -0.011503},
        {0.092391, -0.023622, -0.068082},
        {-0.005289, 0.100433, 0.070877},
        {-0.319718, -0.280747, 0.051385},
        {0.218108, 0.106786, -0.011075},
        {0.069348, 0.044165, 0.070630},
        {-0.217659, -0.356567, -0.000579},
        {0.375257, 0.184297, -0.067375},
        {0.021247, -0.084390, -0.030797},
        {0.215455, 0.069524, 0.013227},
        {-0.025917, 0.056909, 0.205328},
        {0.176143, 0.145265, -0.007059},
        {-0.043714, -0.053702, -0.096860},
        {0.098906, 0.244051, 0.219972},
        {0.214847, 0.217739, 0.170085},
        {0.165542, 0.146238, 0.076196},
        {0.139694, 0.181744, 0.183255},
        {0.214398, 0.055592, -0.040160},
        {-0.247154, -0.113281, -0.014200},
        {0.018340, 0.130522, 0.292009},
        {-0.141990, 0.023542, 0.066520},
        {-0.144773, 0.156478, 0.134762},
        {0.010083, 0.001830, 0.051267},
        {0.050015, -0.128445, 0.027370},
        {0.069848, 0.121464, 0.088321},
        {0.129781, 0.222706, 0.179809},
        {-0.038631, 0.153209, 0.196786},
        {-0.031879, -0.003262, -0.024600},
        {-0.116386, -0.084198, -0.035295},
        {-0.008005, 0.135799, 0.266367}
    },
    {
        {0.079815, -0.123091, -0.250858},
        {0.001566, 0.059873, 0.216702},
        {0.072565, 0.096732, 0.058368},
        {-0.065406, 0.013814, 0.042574},
        {-0.056913, 0.008123, 0.003005},
        {0.108604, 0.035697, 0.099956},
        {-0.022693, -0.011806, -0.135472},
        {0.131252, 0.085548, 0.098228},
        {-0.173347, -0.023903, 0.105825},
        {0.140628, -0.061834, 0.095870},
        {0.050406, -0.157166, -0.203220},
        {-0.076791, 0.111551, 0.173241},
        {0.589720, 0.244083, 0.215869},
        {-0.225034, -0.432518, -0.187008},
        {0.116045, 0.148031, 0.194303},
        {-0.008596, -0.089018, -0.079756},
        {-0.010289, 0.042579, 0.029336},
        {0.248789, 0.165223, -0.045405},
        {0.284372, -0.015559, -0.327386},
        {0.028339, 0.172971, 0.138320},
        {-0.198280, 0.013824, 0.015348},
        {0.011431, -0.034268, -0.161517},
        {0.206636, -0.294691, -0.477858},
        {-0.030405, -0.089031, -0.116421},
        {0.193822, -0.061431, 0.089811},
        {0.122147, 0.165028, 0.227698},
        {-0.078118, 0.043681, 0.239233},
        {-0.096177, -0.094554, 0.135533},
        {-0.087017, -0.118617, 0.037555},
        {-0.209192, -0.007995, 0.258596},
        {0.005149, -0.044036, -0.149278},
        {-0.026537, 0.010241, 0.047240},
        {-0.119141, -0.164483, -0.134567},
        {0.263185, 0.035341, -0.228014},
        {0.087002, 0.021559, -0.015319},
        {0.154676, 0.159340, 0.149288},
        {-0.087267, -0.342531, -0.426241},
        {0.225611, -0.003397, -0.046879},
        {0.266721, 0.136961, -0.017296},
        {-0.049986, 0.026574, 0.001000},
        {-0.057040, -0.260669, -0.254609},
        {0.072055, 0.125807, 0.040411},
        {-0.152918, -0.171887, -0.133508},
        {0.060604, -0.054582, 0.050292},
        {-0.060777, 0.062622, 0.077834},
        {-0.181491, -0.161436, -0.227483},
        {-0.092999, -0.159352, -0.095373},
        {0.259249, 0.090046, 0.034611},
        {-0.060464, 0.059621, 0.073852},
        {-0.027692, 0.053809, -0.113882},
        {0.383973, 0.067031, 0.110667},
        {0.155401, 0.158176, 0.122363},
        {0.125302, 0.083875, 0.169461},
        {-0.105027, 0.100956, 0.231890},
        {0.001448, 0.007134, -0.105075},
        {-0.077794, 0.017582, -0.105940},
        {0.253964, 0.080556, -0.166500},
        {-0.048313, -0.165689, -0.240046},
        {-0.064314, -0.292267, -0.286659},
        {-0.078782, -0.035951, 0.008464},
        {-0.121636, 0.109648, 0.269288},
        {-0.107165, 0.145179, 0.009297},
        {0.125144, 0.108393, -0.038366},
        {-0.139490, -0.162457, -0.036016}
    },
    {
        {-0.090393, -0.011295, 0.024787},
        {0.010640, -0.043026, -0.056390},
        {-0.035188, 0.045599, 0.173132},
        {0.144962, 0.122424, -0.194066},
        {-0.041198, -0.398146, -0.514419},
        {0.005111, 0.165118, 0.119820},
        {0.039225, 0.001782, 0.199017},
        {-0.039370, -0.130304, -0.115687},
        {0.176597, 0.042583, -0.015441},
        {-0.379699, 0.019720, 0.346585},
        {-0.130690, 0.029623, -0.172874},
        {0.131851, 0.049844, 0.081419},
        {-0.182080, -0.010352, -0.143912},
        {0.045117, 0.101651, 0.021584},
        {0.086164, 0.069393, 0.012832},
        {-0.185951, -0.148211, -0.110365},
        {-0.085206, 0.036891, 0.165224},
        {0.029420, 0.170365, 0.149911},
        {-0.191400, -0.009722, 0.070646},
        {0.020108, 0.046346, -0.029574},
        {-0.195379, -0.066184, -0.009240},
        {-0.040553, 0.113567, 0.276708},
        {-0.015372, -0.093367, -0.330763},
        {-0.361427, -0.120511, -0.206761},
        {-0.094913, -0.027379, 0.175257},
        {-0.172164, -0.121963, -0.134655},
        {-0.153498, 0.099466, -0.012846},
        {-0.031428, 0.030452, 0.100884},
        {0.119855, -0.016535, -0.142276},
        {0.093380, 0.016219, 0.096742},
        {0.009737, -0.019544, -0.094137},
        {0.222052, 0.077498, 0.197567},
        {-0.127736, -0.113750, 0.002227},
        {0.031013, 0.125186, 0.015537},
        {-0.216490, -0.371940, -0.428150},
        {0.227825, 0.098217, 0.073466},
        {-0.234905, -0.252747, 0.244903},
        {-0.136608, -0.129583, -0.112243},
        {-0.050243, 0.099875, -0.003155},
        {0.054504, 0.021952, 0.049122},
        {0.121103, 0.210603, 0.060661},
        {-0.252883, -0.268366, -0.324652},
        {0.174254, 0.035902, 0.146934},
        {-0.145253, -0.034081, -0.149203},
        {-0.114057, 0.090292, 0.014762},
        {-0.097135, -0.093582, -0.098535},
        {-0.039399, -0.047225, -0.011667},
        {-0.257114, -0.020141, 0.004057},
        {-0.128175, -0.379934, -0.417499},
        {0.023821, 0.062400, 0.272367},
        {-0.194805, -0.151362, -0.089632},
        {0.041056, -0.050514, -0.177970},
        {0.093174, 0.187005, 0.186176},
        {0.072173, 0.073460, 0.113277},
        {0.186466, 0.135830, 0.167109},
        {-0.241463, -0.297042, -0.287144},
        {-0.080148, -0.093390, -0.091289},
        {-0.014499, 0.138975, 0.104712},
        {-0.064742, -0.223392, -0.057595},
        {0.063610, -0.068533, 0.387243},
        {-0.163877, -0.340387, -0.271054},
        {-0.211690, 0.021184, 0.143275},
        {-0.013525, -0.079674, 0.117070},
        {-0.203612, -0.098596, -0.050949}
    },
    {
        {-0.134461, -0.202058, -0.145858},
        {-0.192612, -0.127943, -0.026595},
        {-0.302343, -0.356457, -0.175292},
        {-0.017905, -0.137012, -0.162668},
        {0.095449, -0.111438, -0.029317},
        {-0.025363, -0.159212, -0.230407},
        {0.068116, -0.015466, -0.006125},
        {-0.082093, 0.069746, 0.228605},
        {-0.280904, -0.301780, -0.369350},
        {-0.041568, -0.027953, 0.018946},
        {-0.194796, -0.219740, -0.111948},
        {-0.028522, -0.181723, -0.194105},
        {0.227335, 0.231742, 0.227733},
        {0.113956, 0.047183, 0.077974},
        {-0.053329, -0.045064, 0.028618},
        {-0.078321, 0.091204, 0.132242},
        {0.213243, 0.389565, 0.438252},
        {0.062857, 0.089038, 0.022462},
        {-0.140473, 0.026250, 0.296053},
        {-0.072617, -0.062191, 0.025540},
        {-0.298905, -0.181386, 0.065875},
        {0.115817, -0.032040, 0.098907},
        {0.172960, -0.029841, -0.142715},
        {0.132341, 0.124482, -0.033651},
        {0.051569, 0.149459, 0.245066},
        {-0.118335, -0.193952, -0.008134},
        {0.177855, 0.086774, 0.169431},
        {-0.263128, -0.192389, -0.297299},
        {-0.250584, -0.037093, -0.008940},
        {-0.158384, -0.106784, 0.218933},
        {-0.126801, -0.102302, -0.057640},
        {-0.385594, -0.254888, -0.141884},
        {0.085020, 0.012990, -0.029340},
        {-0.046997, -0.046409, -0.027400},
        {0.042875, 0.104283, 0.081502},
        {-0.074445, -0.087273, -0.075039},
        {-0.107517, -0.034698, -0.126131},
        {0.053972, 0.000641, 0.024834},
        {0.081204, 0.016978, 0.090514},
        {-0.098215, -0.145618, -0.147963},
        {0.116034, -0.027172, 0.038049},
        {-0.063315, 0.128657, 0.219404},
        {0.050951, 0.110678, 0.133958},
        {-0.092137, -0.082346, -0.096153},
        {-0.095207, -0.083220, -0.191561},
        {-0.206220, -0.116412, -0.062103},
        {-0.104848, -0.134889, -0.049656},
        {-0.095160, -0.000542, 0.112032},
        {0.115839, 0.087303, 0.079884},
        {0.253416, 0.149703, 0.221269},
        {0.038869, 0.124586, 0.086461},
        {-0.064271, -0.025819, -0.086533},
        {0.021409, -0.055548, 0.031809},
        {-0.249158, -0.360015, -0.306977},
        {0.120423, -0.005589, -0.133554},
        {-0.043289, -0.102633, -0.117724},
        {0.019024, 0.031753, 0.166235},
        {0.016976, 0.024211, -0.037256},
        {-0.143815, -0.099390, -0.042128},
        {0.142946, 0.271021, 0.299143},
        {-0.133292, -0.417434, -0.483780},
        {0.052265, -0.085836, -0.203685},
        {-0.032346, -0.106089, -0.123118},
        {-0.110937, -0.095534, -0.064896}
    },
    {
        {-0.300535, 0.129374, 0.499590},
        {0.046866, 0.083589, -0.026684},
        {-0.120331, -0.249106, -0.264395},
        {0.118922, -0.045068, -0.053329},
        {-0.080296, 0.011028, 0.070490},
        {0.012675, -0.047768, -0.098591},
        {0.133455, 0.178762, 0.140874},
        {-0.216586, -0.065503, 0.045858},
        {0.075671, -0.107286, -0.207299},
        {0.190440, -0.076047, -0.124254},
        {-0.083417, -0.217512, -0.053057},
        {0.060829, 0.025754, 0.023394},
        {0.095283, 0.015481, 0.080535},
        {0.268831, 0.078635, 0.128431},
        {0.083749, 0.028160, -0.083906},
        {-0.064563, 0.096479, -0.103838},
        {0.030237, 0.101665, 0.014189},
        {-0.080555, -0.294115, -0.344089},
        {-0.037279, 0.055511, 0.337578},
        {0.236050, -0.148676, -0.325132},
        {0.113380, 0.010787, 0.118651},
        {-0.068413, -0.040271, 0.103797},
        {-0.432184, -0.080988, 0.214177},
        {0.163887, 0.043070, 0.011104},
        {0.083393, -0.069650, -0.003719},
        {-0.049565, -0.137495, -0.224175},
        {0.278603, 0.129463, -0.085555},
        {0.021474, 0.110812, -0.088061},
        {0.275084, -0.049692, -0.138862},
        {0.146686, 0.047361, -0.248601},
        {-0.130628, -0.210271, -0.145111},
        {-0.266097, -0.266529, -0.207277},
        {-0.084429, -0.020556, 0.005890},
        {-0.202359, -0.606553, -0.278851},
        {0.150919, 0.168191, 0.175493},
        {-0.183131, -0.139566, -0.063730},
        {0.009802, 0.067187, 0.142772},
        {-0.089553, -0.219393, -0.137643},
        {0.200708, -0.277634, -0.340773},
        {0.085349, 0.092265, 0.103710},
        {-0.167580, -0.036187, 0.009473},
        {-0.062633, -0.060347, 0.006516},
        {-0.065703, 0.153231, 0.193714},
        {0.070953, 0.028788, 0.037324},
        {0.034459, -0.075408, -0.036922},
        {-0.065252, -0.011284, 0.105389},
        {-0.080586, -0.173679, -0.148942},
        {-0.251915, -0.156855, 0.120652},
        {0.004606, -0.036337, -0.012640},
        {0.142019, 0.227700, 0.307116},
        {-0.267070, -0.057509, 0.145825},
        {-0.148290, -0.156725, -0.046057},
        {0.274898, -0.185906, -0.246653},
        {0.067002, 0.015259, 0.026964},
        {-0.059591, -0.034042, 0.037743},
        {-0.199886, -0.184114, -0.094416},
        {-0.233869, -0.031779, 0.269299},
        {0.092980, 0.007096, 0.211071},
        {-0.037912, 0.014607, 0.066843},
        {-0.094422, -0.009576, 0.007281},
        {0.067257, 0.068833, -0.007043},
        {0.157487, 0.243322, 0.187622},
        {-0.151913, -0.121962, -0.032026},
        {-0.023800, -0.109619, -0.191817}
    },
    {
        {-0.041801, 0.009080, -0.298010},
        {-0.111795, -0.131511, -0.120195},
        {0.006560, 0.087580, 0.193226},
        {0.106732, 0.106370, 0.334563},
        {0.041895, 0.010880, -0.086710},
        {-0.015755, 0.043449, -0.043361},
        {0.051627, 0.097565, 0.193479},
        {0.067230, -0.093158, -0.073941},
        {-0.069876, -0.181766, -0.068846},
        {-0.009027, 0.034672, 0.097809},
        {-0.006380, -0.008417, 0.137794},
        {-0.285445, -0.352849, -0.308204},
        {0.352246, 0.177358, 0.162366},
        {0.050002, -0.114592, 0.049439},
        {0.079204, 0.048923, -0.022253},
        {0.149270, 0.028801, -0.262755},
        {0.197300, -0.047213, -0.087616},
        {-0.114559, -0.252229, -0.372857},
        {0.029067, -0.033623, -0.216128},
        {-0.171860, -0.206529, -0.147008},
        {-0.152777, -0.356674, -0.233501},
        {0.026878, 0.073937, 0.138670},
        {0.096630, 0.095776, 0.005089},
        {-0.108219, 0.119675, 0.178862},
        {0.138132, 0.116292, 0.020570},
        {0.009221, 0.135455, 0.246522},
        {0.027166, 0.066943, 0.184324},
        {0.030284, -0.099130, -0.121425},
        {0.103495, 0.090591, 0.077691},
        {-0.138270, -0.245620, -0.176588},
        {-0.399362, -0.409307, -0.229545},
        {0.132011, -0.066804, -0.077957},
        {0.153003, 0.084071, 0.010222},
        {0.068269, -0.045982, -0.022912},
        {-0.056207, 0.004219, -0.136297},
        {-0.214678, -0.391190, -0.319407},
        {-0.127007, -0.019488, -0.185835},
        {-0.112470, 0.038302, -0.056560},
        {-0.093160, -0.091668, -0.101751},
        {0.203096, 0.101467, 0.002407},
        {-0.107915, -0.098089, -0.100732},
        {0.142619, 0.072239, 0.062694},
        {0.184018, 0.010540, -0.087810},
        {-0.039130, 0.050557, 0.104519},
        {-0.009590, -0.133264, -0.048263},
        {-0.007469, 0.115560, 0.176811},
        {0.004267, -0.236973, -0.471349},
        {-0.029517, -0.142418, -0.089626},
        {0.059981, 0.006191, -0.050319},
        {-0.039112, -0.173698, -0.044468},
        {0.101001, 0.018476, -0.111794},
        {0.031772, 0.019834, 0.001136},
        {-0.120154, -0.184791, -0.043494},
        {-0.180548, -0.043474, -0.103257},
        {0.049515, -0.101575, 0.110173},
        {-0.079169, -0.114344, -0.062932},
        {-0.072261, -0.117414, -0.100502},
        {-0.088182, -0.124935, 0.103244},
        {0.042146, 0.211161, 0.275941},
        {-0.023005, 0.014673, 0.104764},
        {-0.102453, -0.122909, -0.196867},
        {0.124989, 0.014385, -0.012028},
        {0.239048, 0.104032, 0.041103},
        {0.025872, -0.061827, -0.057505}
    },
    {
        {0.073449, 0.059269, -0.133494},
        {0.098457, 0.006743, 0.092961},
        {-0.094731, -0.107325, -0.100362},
        {0.154513, -0.050801, 0.193809},
        {-0.118441, -0.253308, -0.411035},
        {-0.001711, 0.002924, 0.045205},
        {-0.130734, -0.189566, -0.297470},
        {0.172682, 0.078698, 0.076858},
        {0.168394, -0.130011, -0.052617},
        {0.038434, -0.055361, 0.134539},
        {0.180440, -0.010004, 0.112864},
        {-0.270180, -0.575843, -0.565217},
        {0.252191, 0.098716, -0.025864},
        {-0.062440, 0.006942, 0.111198},
        {0.098728, 0.022477, 0.113547},
        {0.210187, 0.114243, 0.127611},
        {0.186121, -0.104901, -0.023380},
        {0.148312, 0.069172, -0.072907},
        {0.197743, 0.116108, -0.095483},
        {0.109270, 0.042599, 0.012654},
        {0.039207, -0.200430, -0.217450},
        {0.005571, -0.074082, -0.200052},
        {-0.038854, -0.175703, -0.229182},
        {-0.051183, 0.033940, 0.266720},
        {-0.248855, -0.192139, -0.189399},
        {-0.153153, -0.084435, 0.005842},
        {-0.172298, -0.231751, -0.016685},
        {0.127453, -0.075487, -0.009475},
        {0.009512, 0.029777, 0.027581},
        {0.068538, -0.016160, 0.009005},
        {0.116868, -0.273936, -0.367284},
        {0.207748, 0.122955, 0.105742},
        {-0.076976, 0.007939, 0.067293},
        {0.033834, -0.027124, 0.107078},
        {0.078798, 0.062510, 0.023791},
        {0.060972, -0.041112, -0.153713},
        {-0.061771, -0.092305, -0.253353},
        {-0.184362, -0.129150, -0.266864},
        {-0.108503, -0.088293, -0.130554},
        {0.027560, -0.087979, -0.123067},
        {-0.096713, -0.132327, -0.111898},
        {-0.112365, -0.015060, -0.121499},
        {0.157002, -0.020310, 0.034088},
        {-0.107151, -0.036253, 0.040891},
        {0.025460, -0.256041, -0.172583},
        {0.054284, 0.102813, 0.152544},
        {0.263371, 0.199825, 0.192612},
        {0.017542, -0.097776, -0.133854},
        {0.149036, -0.001044, -0.091670},
        {0.145342, -0.145955, -0.177114},
        {0.056232, -0.101731, -0.142210},
        {0.065558, 0.022213, 0.023443},
        {-0.043869, -0.106668, -0.069639},
        {-0.144559, -0.236892, -0.220935},
        {0.380858, 0.014655, -0.023012},
        {-0.062008, -0.290103, -0.168045},
        {0.083069, 0.024869, -0.053467},
        {-0.305425, -0.400543, -0.131682},
        {-0.064907, 0.117849, -0.224956},
        {0.057232, 0.004732, 0.063283},
        {0.110781, -0.105953, -0.147721},
        {0.231518, 0.186573, 0.248943},
        {-0.165835, -0.101889, -0.005187},
        {0.059464, 0.030611, 0.122740}
    },
    {
        {0.056498, 0.160911, 0.218583},
        {-0.000118, -0.069281, -0.082929},
        {0.042077, 0.125248, 0.112038},
        {-0.069432, 0.001724, 0.124647},
        {-0.048145, -0.030080, 0.043840},
        {0.084547, 0.096552, 0.094417},
        {0.061297, 0.060254, -0.111472},
        {-0.151231, -0.048927, -0.017239},
        {0.103456, 0.162980, 0.204651},
        {0.066610, -0.033434, -0.129717},
        {0.030136, 0.052329, 0.067320},
        {0.067291, 0.070541, -0.100129},
        {-0.022808, -0.010419, 0.032553},
        {-0.010640, -0.111783, -0.116565},
        {-0.046434, -0.041136, -0.100698},
        {-0.014143, -0.051057, -0.071688},
        {-0.193353, -0.234601, -0.156755},
        {-0.075454, -0.058635, -0.049134},
        {0.140107, 0.216084, 0.180315},
        {-0.080698, -0.050124, -0.073772},
        {-0.020123, 0.019768, 0.036096},
        {0.013012, -0.055082, -0.110704},
        {-0.186328, -0.045915, 0.068966},
        {-0.129274, -0.202997, -0.225372},
        {-0.092537, -0.067170, 0.074239},
        {0.024083, 0.021613, 0.048176},
        {0.104419, 0.060381, -0.044475},
        {-0.101264, -0.047688, -0.063002},
        {-0.039493, -0.042492, 0.002660},
        {0.025619, 0.150605, 0.012862},
        {0.129448, 0.003317, -0.075715},
        {0.030934, -0.115497, 0.060249},
        {-0.060651, -0.044239, -0.071517},
        {-0.017361, 0.009673, -0.055048},
        {-0.206083, -0.227024, -0.030430},
        {0.020038, -0.005204, -0.106752},
        {0.158317, 0.229532, 0.071516},
        {0.038437, 0.030308, -0.031258},
        {0.057216, -0.020868, -0.024136},
        {0.084408, 0.008247, -0.062534},
        {-0.035799, -0.092518, -0.173687},
        {0.043403, 0.026775, 0.038394},
        {-0.341540, -0.213578, -0.103235},
        {0.114673, 0.062802, 0.014054},
        {0.052772, 0.040633, 0.006735},
        {-0.158406, -0.227052, -0.265519},
        {-0.091337, -0.032581, -0.013168},
        {-0.041343, -0.051149, -0.133191},
        {-0.113919, -0.067743, -0.094028},
        {-0.152032, -0.045772, -0.155133},
        {-0.076712, -0.076033, -0.069136},
        {0.107648, 0.073837, -0.018578},
        {-0.010246, -0.000611, -0.043485},
        {0.058031, -0.023900, -0.012633},
        {0.004360, 0.049412, -0.068778},
        {-0.268256, -0.217884, -0.171368},
        {-0.009407, 0.061367, 0.016886},
        {-0.003924, -0.049398, -0.171057},
        {0.032271, 0.004948, -0.078920},
        {-0.212232, -0.192873, -0.378028},
        {-0.024060, 0.047593, 0.149094},
        {-0.172875, -0.088675, -0.103783},
        {-0.072899, 0.020763, 0.062126},
        {0.077526, 0.053298, 0.058750}
    },
    {
        {0.225180, 0.209985, 0.088786},
        {-0.041126, 0.196430, 0.213990},
        {0.119193, 0.135149, 0.029915},
        {-0.151053, 0.144297, 0.224849},
        {-0.059147, -0.011920, -0.033494},
        {0.017490, 0.168593, 0.040535},
        {-0.487638, -0.398519, -0.492313},
        {0.485827, 0.151274, -0.284313},
        {-0.106736, 0.188559, 0.135652},
        {0.053658, 0.239732, 0.469315},
        {0.043369, 0.118107, -0.013205},
        {0.092496, 0.175609, 0.035319},
        {0.079694, 0.240814, 0.189585},
        {-0.016315, 0.291546, -0.169176},
        {-0.073600, 0.071929, -0.194675},
        {0.328154, 0.016757, 0.241431},
        {-0.079256, -0.281478, -0.052549},
        {0.257156, 0.081307, -0.346054},
        {0.173613, 0.181878, 0.093056},
        {-0.019571, -0.010590, -0.077613},
        {-0.283328, -0.180799, -0.060693},
        {-0.395114, -0.205841, -0.388899},
        {0.080509, 0.199584, 0.067080},
        {0.011884, -0.007515, -0.115584},
        {0.008506, 0.156586, 0.075996},
        {-0.222880, -0.040401, 0.060291},
        {-0.200287, -0.103281, -0.268033},
        {0.271008, 0.166315, 0.063756},
        {-0.106163, -0.117204, -0.233267},
        {-0.019300, 0.049512, -0.231713},
        {-0.057346, -0.064419, -0.281646},
        {0.073735, -0.029050, -0.310031},
        {-0.096657, 0.033738, -0.121537},
        {0.022998, 0.136372, 0.135135},
        {-0.058700, 0.196298, 0.165980},
        {0.097391, 0.190494, -0.066067},
        {-0.079914, 0.240717, -0.054750},
        {0.056868, 0.200697, 0.107129},
        {0.088455, 0.056714, -0.049652},
        {-0.108288, -0.120624, -0.129050},
        {0.016488, 0.184098, 0.020863},
        {0.021603, 0.215414, 0.075672},
        {-0.191511, 0.259614, 0.047031},
        {-0.163614, -0.137079, -0.338602},
        {-0.090258, 0.030937, 0.033938},
        {-0.074135, 0.058007, 0.071271},
        {0.324569, 0.104921, -0.174429},
        {-0.060230, 0.250187, 0.152776},
        {-0.137649, 0.083470, -0.059298},
        {-0.379952, -0.226798, -0.380348},
        {-0.048969, 0.172454, 0.061186},
        {0.042726, 0.237753, 0.167799},
        {-0.202714, 0.065849, -0.019874},
        {0.170599, 0.297665, 0.090419},
        {-0.038389, 0.173903, 0.306047},
        {-0.194857, -0.158738, -0.212408},
        {0.096125, 0.121592, 0.042204},
        {0.097153, 0.294231, 0.096422},
        {0.114140, 0.258425, 0.092084},
        {-0.075018, 0.286044, 0.195480},
        {0.182403, 0.361638, 0.300654},
        {-0.256679, -0.191979, -0.296450},
        {0.224666, -0.042681, 0.070874},
        {0.127832, 0.052192, 0.039601}
    },
    {
        {0.029509, 0.075719, 0.013440},
        {-0.216202, -0.388720, -0.370497},
        {-0.140547, 0.041220, 0.024588},
        {0.052182, 0.040620, -0.060304},
        {-0.099298, -0.130169, -0.184843},
        {0.008843, 0.093657, -0.068830},
        {0.008857, 0.028791, 0.138809},
        {-0.050108, -0.154153, -0.113915},
        {0.149519, -0.044197, -0.090044},
        {-0.173895, 0.080007, -0.142600},
        {-0.080534, 0.032317, -0.030338},
        {0.092921, 0.021356, -0.055346},
        {-0.084355, -0.100695, -0.075901},
        {-0.214063, 0.037757, 0.123259},
        {0.086698, -0.076880, -0.173766},
        {-0.130798, -0.120556, -0.207798},
        {-0.200740, -0.069811, 0.108954},
        {0.096980, 0.057378, 0.059117},
        {-0.028547, -0.020141, -0.179638},
        {0.129507, 0.195059, 0.266160},
        {-0.029107, 0.018561, -0.006084},
        {-0.093507, 0.092807, 0.112028},
        {0.076122, -0.003639, 0.074442},
        {-0.224534, -0.085830, -0.193701},
        {-0.119885, 0.143683, -0.027978},
        {-0.154609, -0.051303, -0.053070},
        {-0.116309, -0.063765, -0.137034},
        {0.118253, 0.099553, 0.114128},
        {0.072809, 0.104397, 0.033986},
        {0.203281, -0.011019, 0.015915},
        {-0.052344, -0.080131, -0.206411},
        {0.046163, 0.014901, 0.088855},
        {-0.015104, 0.059775, 0.154934},
        {-0.031600, 0.096353, -0.071338},
        {-0.300858, -0.097334, -0.185172},
        {0.078378, 0.008806, -0.130848},
        {-0.124430, -0.188637, -0.317641},
        {-0.010510, -0.109546, -0.033669},
        {0.103143, 0.078285, 0.029832},
        {-0.027184, -0.016431, -0.072944},
        {0.111617, 0.034645, 0.001747},
        {-0.062450, 0.093513, -0.005183},
        {-0.128068, -0.002512, -0.081614},
        {0.014207, -0.034037, -0.090391},
        {-0.095292, -0.098257, -0.282265},
        {0.085990, 0.097115, 0.136392},
        {0.090718, 0.001672, -0.043997},
        {0.147498, 0.191140, 0.010212},
        {0.031488, 0.006121, -0.034952},
        {-0.018694, 0.025929, 0.123631},
        {0.110582, 0.195077, 0.031269},
        {0.147970, 0.080696, -0.067378},
        {-0.077774, 0.034253, -0.048077},
        {-0.029255, -0.050997, -0.165631},
        {0.259634, 0.102433, 0.080995},
        {-0.106407, -0.155196, -0.183258},
        {0.112954, 0.028645, -0.129204},
        {-0.080380, 0.076000, 0.048835},
        {0.131889, 0.191868, 0.127460},
        {-0.247990, -0.232942, -0.092166},
        {-0.236449, -0.350785, -0.435029},
        {0.309759, 0.256809, 0.195455},
        {-0.160572, -0.079483, -0.219572},
        {-0.112789, -0.006429, -0.123435}
    },
    {
        {-0.111530, -0.134503, -0.190703},
        {0.057451, 0.049292, -0.038183},
        {-0.062810, -0.110785, -0.192837},
        {-0.061800, -0.068886, 0.024857},
        {0.133964, -0.047478, -0.139605},
        {-0.000277, -0.054063, -0.018793},
        {-0.109792, -0.192435, -0.082021},
        {0.005590, -0.029091, 0.035755},
        {-0.022977, -0.054316, -0.022927},
        {0.031279, -0.056005, -0.086654},
        {0.095040, 0.112651, 0.134182},
        {-0.207865, -0.097345, 0.041407},
        {-0.054855, -0.082868, 0.030506},
        {0.006834, 0.120160, 0.128859},
        {0.061711, 0.074065, 0.058557},
        {-0.038510, -0.011769, -0.216759},
        {-0.152491, 0.053637, 0.049113},
        {-0.079842, -0.156999, -0.190202},
        {-0.195771, -0.155971, -0.181424},
        {0.129506, -0.012108, -0.011385},
        {0.043590, -0.025012, -0.052273},
        {-0.033973, -0.072288, 0.080503},
        {-0.050260, -0.034448, -0.047623},
        {0.006617, 0.004883, 0.055985},
        {-0.059872, 0.006731, 0.225495},
        {0.070733, -0.014197, -0.063743},
        {-0.088316, -0.052158, 0.065534},
        {0.066504, 0.039549, -0.068936},
        {0.043155, -0.033358, -0.065076},
        {0.058159, 0.097702, 0.145706},
        {-0.151222, -0.054401, 0.025805},
        {-0.070717, 0.077752, 0.024129},
        {0.011985, -0.168037, -0.234136},
        {-0.028034, -0.020006, 0.036151},
        {0.031985, -0.007824, 0.011501},
        {-0.034311, -0.033701, 0.011034},
        {0.054183, 0.101251, 0.121180},
        {0.008558, -0.166478, -0.220923},
        {0.022081, -0.113740, -0.023502},
        {-0.075604, -0.272924, -0.241450},
        {-0.046756, -0.009735, 0.004294},
        {0.118391, -0.071461, -0.129038},
        {0.053345, 0.074148, -0.006907},
        {0.095650, 0.052118, 0.082256},
        {-0.161435, -0.300201, -0.201587},
        {0.174854, 0.122844, 0.123739},
        {0.092503, -0.050003, -0.136575},
        {-0.048605, 0.116315, 0.132403},
        {-0.025176, -0.021738, 0.002040},
        {0.027614, 0.008820, 0.157196},
        {-0.045017, 0.059954, 0.065130},
        {-0.006488, -0.021985, -0.041715},
        {0.020714, -0.036223, -0.092343},
        {-0.006536, 0.027491, 0.092319},
        {-0.081830, -0.097761, -0.023325},
        {0.076831, 0.057547, 0.014505},
        {-0.124774, -0.320912, -0.199652},
        {0.036752, 0.062392, 0.018146},
        {0.137686, 0.166306, 0.066234},
        {-0.059180, -0.017322, -0.051308},
        {0.139749, 0.019603, 0.003418},
        {0.122898, 0.013947, -0.014382},
        {-0.010095, -0.114342, -0.277471},
        {0.168130, 0.075010, 0.059904}
    },
    {
        {-0.108469, 0.014703, -0.019392},
        {-0.052032, 0.035246, 0.002756},
        {-0.224469, -0.196296, -0.018287},
        {-0.081466, -0.254507, -0.277007},
        {0.223093, 0.028920, 0.035071},
        {0.260504, 0.172810, 0.142182},
        {-0.175010, -0.225418, -0.123548},
        {-0.282194, -0.164147, -0.153790},
        {-0.290128, -0.165794, -0.120139},
        {0.253619, -0.026332, -0.357382},
        {-0.101847, -0.393523, -0.365202},
        {0.024531, 0.086685, 0.159924},
        {-0.169755, -0.034616, 0.026310},
        {-0.193863, -0.149270, 0.038204},
        {-0.077420, 0.119628, 0.186541},
        {-0.088861, -0.112230, 0.333338},
        {0.009011, 0.037144, 0.019404},
        {-0.162951, 0.057977, 0.207843},
        {-0.068791, -0.007413, 0.182390},
        {0.028581, 0.210213, 0.337137},
        {-0.060994, 0.014239, 0.087879},
        {0.088217, -0.054344, 0.028560},
        {-0.181247, -0.201569, -0.005831},
        {0.328483, 0.229880, 0.261953},
        {-0.219646, -0.006804, 0.244101},
        {-0.088881, -0.056964, -0.078784},
        {0.122546, 0.201759, 0.194769},
        {-0.280112, -0.006929, 0.189342},
        {-0.369030, -0.161076, -0.091338},
        {0.123582, 0.129475, 0.376932},
        {-0.063169, -0.028365, -0.073175},
        {-0.162078, -0.041977, 0.061558},
        {0.095482, 0.129093, 0.085789},
        {0.059375, 0.109972, -0.033744},
        {0.069584, 0.101447, 0.203187},
        {0.163543, 0.269592, 0.173747},
        {-0.016693, -0.112187, -0.008289},
        {0.132433, 0.098299, -0.024546},
        {-0.220542, -0.115210, -0.075821},
        {0.154178, 0.112207, 0.107988},
        {0.017712, -0.058303, 0.214360},
        {-0.182660, -0.113247, 0.023543},
        {-0.113547, -0.217822, -0.082069},
        {0.095201, -0.154978, -0.171543},
        {0.225177, -0.079561, -0.081496},
        {-0.071439, 0.024115, 0.016924},
        {-0.281009, -0.048333, 0.111873},
        {-0.254220, -0.164231, 0.016766},
        {-0.096341, -0.060337, 0.178945},
        {0.007994, 0.020727, -0.038828},
        {-0.145924, 0.103888, 0.315855},
        {0.166875, 0.305234, 0.210377},
        {-0.018317, 0.082274, 0.045001},
        {0.169159, 0.029913, -0.158443},
        {0.061086, 0.337317, 0.166550},
        {0.177804, -0.010678, -0.161976},
        {-0.011846, -0.067534, 0.227160},
        {0.067534, -0.099420, -0.199650},
        {-0.135724, -0.029698, 0.195928},
        {0.030802, -0.062060, -0.087851},
        {-0.052098, -0.239036, -0.269390},
        {-0.079470, -0.218738, -0.218892},
        {-0.288014, -0.232523, -0.072013},
        {-0.200712, -0.022513, 0.248940}
    },
    {
        {-0.658820, 0.246787, 0.385675},
        {0.046772, 0.220037, 0.152984},
        {-0.295638, -0.016188, 0.070136},
        {0.225590, 0.044167, 0.194924},
        {0.178012, 0.036453, -0.241160},
        {-0.194405, 0.028165, 0.086275},
        {-0.243024, -0.098227, 0.100699},
        {0.071447, 0.000103, 0.055249},
        {-0.709716, -0.577936, -0.265796},
        {0.118640, 0.110400, 0.175574},
        {0.050866, 0.294964, 0.259324},
        {0.013240, 0.079287, -0.062148},
        {-0.161246, 0.248141, 0.301193},
        {0.737344, 0.269651, -0.559665},
        {0.198449, 0.006360, -0.031542},
        {0.224545, 0.061596, -0.123148},
        {-0.037422, 0.047880, -0.062158},
        {-0.179022, 0.052685, 0.083835},
        {-0.409130, 0.097761, 0.105109},
        {-0.923173, -0.220144, 0.048499},
        {0.103310, 0.008838, 0.044208},
        {0.182811, 0.131872, -0.148003},
        {0.031200, 0.266333, 0.192888},
        {-0.139759, 0.050238, 0.088188},
        {0.272398, -0.018365, -0.169222},
        {-0.111580, 0.006635, -0.000600},
        {0.287057, -0.226703, -0.410730},
        {0.149654, 0.067221, -0.126608},
        {-0.326033, -0.087634, 0.247813},
        {-0.147880, 0.035051, 0.081913},
        {-0.080691, -0.075781, -0.066960},
        {-0.830302, -0.345378, 0.110484},
        {-0.113523, -0.292292, -0.374531},
        {-0.563757, -0.094910, 0.242037},
        {-0.037669, 0.074705, -0.085178},
        {0.130838, 0.213081, 0.215514},
        {0.052946, -0.055465, 0.169820},
        {0.225455, 0.221026, 0.316028},
        {-0.729394, -0.242963, 0.085690},
        {0.042669, 0.092833, 0.090567},
        {0.472481, 0.226734, -0.141301},
        {0.053142, 0.087688, -0.037882},
        {0.483464, 0.128808, 0.044217},
        {0.051470, 0.004010, 0.103896},
        {0.405874, 0.353113, 0.068209},
        {-0.332740, -0.014026, 0.043498},
        {0.066784, 0.060770, 0.052106},
        {-0.153259, -0.015462, 0.196154},
        {-0.674534, -0.540783, -0.095050},
        {-0.205674, -0.241358, -0.090522},
        {-0.003856, 0.106163, 0.119148},
        {0.112704, 0.257057, 0.139057},
        {-0.016307, -0.106155, -0.025194},
        {-0.036431, -0.041730, -0.174542},
        {0.270412, 0.213119, 0.095662},
        {-0.213154, 0.030890, 0.061920},
        {-0.139377, 0.241800, 0.250394},
        {0.020544, -0.070323, -0.061945},
        {-0.258148, -0.109348, 0.298180},
        {0.208481, 0.100268, 0.064396},
        {-0.317217, -0.464650, -0.357591},
        {0.031326, -0.112729, -0.048169},
        {-0.239814, -0.042052, 0.245690},
        {-0.081103, -0.276290, -0.496138}
    },
    {
        {0.079273, 0.060964, 0.118236},
        {-0.179665, -0.008819, 0.087426},
        {-0.060591, -0.001175, 0.105158},
        {-0.289631, -0.137451, -0.112320},
        {0.283600, 0.213403, 0.356108},
        {0.017217, 0.020270, 0.119849},
        {-0.032700, -0.171274, -0.153751},
        {0.038183, -0.087244, -0.109787},
        {-0.298526, -0.203512, -0.044214},
        {-0.154602, -0.188450, -0.093597},
        {-0.086684, -0.132795, 0.095130},
        {0.077289, 0.072590, 0.036969},
        {-0.092583, -0.027642, 0.195440},
        {0.000558, 0.018421, -0.014656},
        {-0.065693, -0.061563, -0.113142},
        {-0.114215, -0.082671, -0.332616},
        {-0.100930, 0.033663, 0.089118},
        {-0.076327, -0.030826, -0.026213},
        {-0.058959, 0.035535, 0.150677},
        {0.012532, 0.186998, 0.187767},
        {0.135707, 0.252162, 0.179408},
        {0.075466, 0.090907, 0.302157},
        {0.031137, -0.067262, 0.004889},
        {-0.388773, -0.189385, -0.167670},
        {-0.207372, 0.093610, 0.387418},
        {-0.094785, -0.130076, -0.026379},
        {0.077839, 0.013511, 0.150324},
        {0.091613, 0.196199, 0.082024},
        {0.002775, 0.045774, 0.022045},
        {-0.000164, -0.067164, -0.005980},
        {0.065269, -0.014785, 0.101748},
        {0.000704, 0.131257, 0.057763},
        {-0.229027, -0.234653, -0.189605},
        {-0.143405, 0.097916, 0.108794},
        {-0.050243, -0.018188, -0.007582},
        {0.093076, 0.043716, 0.050373},
        {-0.075452, -0.032275, 0.236246},
        {0.312547, 0.029639, -0.070585},
        {0.091242, 0.046217, 0.082515},
        {0.076614, -0.121115, -0.098635},
        {0.030458, -0.062046, 0.094900},
        {0.145240, 0.001459, -0.090015},
        {-0.045766, -0.027172, -0.122186},
        {0.069246, -0.018425, -0.005097},
        {0.070518, -0.187706, -0.054388},
        {0.068094, 0.011771, 0.091701},
        {-0.038540, -0.103571, -0.211616},
        {-0.022298, 0.199753, 0.293631},
        {-0.063339, 0.013406, 0.150216},
        {0.144342, 0.001834, 0.037046},
        {0.021870, 0.235462, 0.193202},
        {0.054369, -0.231615, -0.309738},
        {-0.022718, -0.042971, -0.026059},
        {-0.061502, -0.190350, -0.335665},
        {0.072243, -0.087815, -0.103690},
        {-0.045441, -0.208239, -0.153818},
        {0.031114, -0.014821, 0.112415},
        {-0.075561, -0.148955, -0.112303},
        {-0.125798, 0.017014, 0.149602},
        {-0.373075, -0.462222, -0.236770},
        {0.075055, -0.180755, -0.221245},
        {-0.448173, -0.409085, -0.090950},
        {-0.263160, -0.108529, -0.209865},
        {0.129422, 0.118155, 0.096232}
    },
    {
        {0.130315, 0.022811, -0.123236},
        {0.118121, 0.020259, -0.016540},
        {-0.136235, -0.002490, -0.105439},
        {0.050439, -0.012176, -0.059881},
        {-0.321625, -0.201395, 0.225051},
        {-0.164419, -0.088614, -0.024088},
        {-0.091257, -0.026738, 0.175569},
        {0.316868, 0.408962, 0.305478},
        {0.035274, -0.060989, -0.207297},
        {-0.158770, 0.046611, -0.039349},
        {0.061369, -0.056275, 0.022948},
        {0.109196, 0.129664, 0.073159},
        {-0.047761, 0.111766, 0.396542},
        {-0.121409, -0.022069, -0.159487},
        {0.080197, -0.019845, -0.062985},
        {0.297732, 0.062277, -0.139250},
        {-0.030787, -0.114760, 0.132891},
        {-0.053994, -0.099736, -0.067707},
        {0.102768, -0.030696, -0.020417},
        {0.044572, 0.175493, -0.054021},
        {-0.153781, -0.108704, -0.384290},
        {-0.012872, -0.064786, -0.003495},
        {-0.083550, -0.263314, -0.407403},
        {0.073367, -0.002639, 0.227157},
        {-0.139647, -0.035048, 0.093480},
        {-0.077111, 0.288041, 0.227983},
        {0.086686, 0.265346, 0.341842},
        {-0.021670, -0.219586, -0.199960},
        {0.101089, 0.209954, 0.017117},
        {0.062021, 0.044869, -0.126330},
        {0.028753, 0.068983, 0.037171},
        {0.024368, -0.030094, -0.003373},
        {-0.367045, -0.384356, -0.147137},
        {0.120613, 0.059379, 0.058170},
        {0.224676, 0.150021, 0.124299},
        {0.023163, 0.125059, 0.102439},
        {-0.116602, 0.041091, 0.010024},
        {0.000796, -0.117004, -0.404836},
        {-0.010066, 0.036005, -0.103037},
        {-0.271162, -0.077631, 0.135900},
        {-0.308318, -0.268132, -0.342064},
        {0.130172, 0.345846, 0.071034},
        {0.019869, 0.080987, 0.069242},
        {0.153236, 0.090318, 0.003735},
        {0.180697, 0.128892, 0.153958},
        {-0.288757, -0.114049, -0.128976},
        {0.106243, -0.001674, -0.254817},
        {0.101147, 0.079750, 0.048700},
        {0.142937, 0.161512, 0.208533},
        {0.158151, 0.223741, 0.232384},
        {0.157329, -0.008354, -0.026165},
        {0.031375, 0.001206, -0.046565},
        {-0.079208, 0.239222, -0.050905},
        {0.188068, 0.036290, 0.024949},
        {-0.157183, -0.364610, -0.438799},
        {-0.119269, -0.186479, -0.099217},
        {0.009875, 0.102189, 0.223862},
        {-0.268748, -0.236548, -0.336984},
        {0.142621, 0.208331, 0.243707},
        {-0.247587, 0.108618, 0.072873},
        {0.057860, 0.010333, -0.037239},
        {0.010904, -0.063909, -0.093044},
        {-0.147736, -0.094408, -0.049193},
        {0.090439, 0.058611, 0.179075}
    },
    {
        {0.209835, 0.048072, -0.101027},
        {0.011613, -0.297579, -0.090443},
        {0.019816, 0.064591, -0.104788},
        {0.040274, 0.023850, -0.074333},
        {0.050899, 0.028771, 0.161255},
        {-0.143008, -0.437443, -0.729288},
        {-0.064519, 0.010018, -0.027634},
        {0.111280, 0.073523, 0.017590},
        {-0.199777, -0.306181, -0.197356},
        {0.032894, -0.045869, -0.102739},
        {-0.346190, -0.033383, -0.226312},
        {0.149432, 0.107888, -0.084781},
        {0.001235, -0.042062, 0.044622},
        {-0.021775, -0.072024, 0.040387},
        {0.021199, -0.113157, -0.175991},
        {0.074769, 0.029071, 0.005045},
        {0.028466, 0.028935, 0.038941},
        {-0.065563, 0.144090, -0.156297},
        {0.132706, -0.038435, -0.108945},
        {-0.103724, 0.143032, 0.243427},
        {0.085616, 0.271551, 0.173042},
        {-0.067919, 0.044930, -0.150596},
        {0.124629, -0.020492, 0.028135},
        {-0.094143, -0.030239, 0.133894},
        {0.068148, -0.076501, 0.152877},
        {0.058114, 0.261642, 0.085005},
        {0.076651, -0.139735, -0.046899},
        {-0.032010, -0.063379, 0.014697},
        {0.092466, 0.058310, -0.094717},
        {0.034566, 0.053013, -0.050290},
        {0.094840, 0.060976, -0.216668},
        {-0.058298, -0.166034, 0.013826},
        {-0.163414, -0.318510, -0.342604},
        {-0.368421, -0.356823, -0.299472},
        {-0.095749, 0.023634, 0.115973},
        {0.100359, 0.197776, -0.029214},
        {0.070279, 0.068218, -0.061136},
        {0.033930, 0.021438, -0.093567},
        {-0.244318, -0.169395, 0.020910},
        {0.108446, 0.189700, 0.161233},
        {-0.045442, -0.039523, 0.061118},
        {0.055604, 0.217499, 0.142704},
        {0.050985, 0.239354, 0.175982},
        {-0.323122, -0.483491, -0.446675},
        {0.324814, 0.167626, 0.148306},
        {0.257877, -0.016674, 0.100723},
        {0.172913, 0.075444, 0.034462},
        {0.143872, 0.067515, -0.037948},
        {-0.138359, -0.196090, -0.137355},
        {-0.042251, -0.045164, -0.181487},
        {0.169374, 0.070820, 0.004078},
        {0.042807, -0.014961, -0.228676},
        {-0.025660, 0.138291, -0.019519},
        {0.138248, 0.173503, 0.246968},
        {-0.024177, -0.055634, -0.159717},
        {-0.384371, -0.461478, -0.359377},
        {0.203994, 0.205220, 0.047724},
        {-0.293234, -0.183470, -0.253115},
        {0.149169, 0.070695, 0.046585},
        {0.084219, 0.123332, -0.063235},
        {0.025360, -0.095001, 0.067574},
        {-0.014586, -0.011924, 0.028066},
        {0.130938, 0.095703, 0.067875},
        {-0.051195, -0.141577, -0.001099}
    },
    {
        {-0.017031, 0.109552, 0.210723},
        {-0.064381, -0.047259, 0.142214},
        {0.053743, -0.019163, 0.012882},
        {0.206972, 0.411888, -0.254977},
        {-0.314226, -0.100007, -0.204196},
        {0.138365, 0.108800, -0.050122},
        {-0.004939, -0.012299, -0.210967},
        {-0.096978, -0.069357, 0.071821},
        {-0.193494, 0.046967, -0.117281},
        {0.174857, 0.205022, 0.034869},
        {-0.138537, 0.214691, -0.297557},
        {-0.127228, -0.071594, 0.153085},
        {0.101326, 0.005788, 0.092043},
        {0.124571, 0.146229, 0.022767},
        {0.065232, -0.031175, -0.195246},
        {-0.028773, 0.035926, -0.110343},
        {-0.208806, -0.174319, -0.119743},
        {-0.161913, -0.263882, -0.426233},
        {0.024872, 0.142405, -0.093866},
        {-0.101931, -0.017704, 0.002022},
        {-0.062398, -0.009673, 0.062751},
        {0.137608, 0.000137, -0.147693},
        {0.423718, 0.238337, -0.045147},
        {-0.102140, 0.083418, -0.260292},
        {0.375945, 0.100533, 0.122798},
        {-0.180226, -0.162215, -0.071064},
        {0.180791, 0.196743, -0.058233},
        {-0.012278, -0.072677, 0.046085},
        {-0.020578, 0.044717, 0.146736},
        {0.115901, 0.109393, 0.080373},
        {-0.119905, -0.309719, -0.201809},
        {-0.057352, -0.022105, -0.040904},
        {-0.040013, -0.139354, -0.150865},
        {0.009475, 0.065775, -0.357271},
        {-0.089378, -0.007884, 0.153407},
        {-0.046530, -0.098048, -0.154644},
        {-0.008382, -0.149407, -0.241764},
        {0.199120, -0.108071, 0.267951},
        {0.019197, 0.074200, -0.158942},
        {-0.151720, -0.028067, 0.083982},
        {0.318890, 0.128406, -0.240975},
        {-0.280243, 0.044588, 0.007053},
        {0.054509, 0.015216, 0.008239},
        {0.067594, 0.092801, -0.059854},
        {-0.053883, 0.205967, -0.100156},
        {-0.760400, -0.659709, -0.460767},
        {-0.106883, -0.060529, -0.130704},
        {0.044666, -0.026312, -0.230765},
        {-0.328013, -0.364842, -0.130086},
        {-0.058587, 0.129522, -0.214872},
        {0.084959, -0.168435, -0.385568},
        {0.038736, 0.047383, -0.062139},
        {0.337291, 0.118121, 0.246718},
        {-0.007864, 0.170016, 0.225070},
        {0.208087, -0.133460, -0.262982},
        {-0.006702, 0.152461, -0.050600},
        {-0.029216, -0.104388, -0.254280},
        {-0.006450, 0.030207, -0.039151},
        {-0.083520, -0.374598, -0.524434},
        {-0.327595, -0.243535, -0.145803},
        {-0.388795, 0.047455, 0.146368},
        {0.288516, 0.220714, 0.239846},
        {0.132257, 0.074344, 0.099043},
        {-0.108445, -0.118778, -0.179600}
    },
    {
        {-0.017033, -0.062205, -0.078868},
        {0.149025, 0.218196, 0.210618},
        {-0.116475, -0.191962, -0.168748},
        {0.036202, 0.040967, -0.155039},
        {-0.249984, -0.361054, -0.136463},
        {0.111484, 0.040269, -0.200197},
        {0.026747, 0.002835, 0.065999},
        {-0.149800, 0.001472, 0.080184},
        {-0.296974, -0.075709, -0.076846},
        {0.160115, 0.075132, 0.230814},
        {0.217069, 0.167090, -0.116087},
        {-0.347124, -0.388806, -0.003449},
        {0.079972, -0.064977, 0.032946},
        {0.127770, 0.020567, 0.003915},
        {-0.292255, -0.110980, 0.029665},
        {-0.003186, 0.074704, -0.035533},
        {-0.212585, 0.104922, -0.090244},
        {-0.025206, -0.053153, -0.148022},
        {0.021606, -0.023730, -0.045404},
        {-0.054484, -0.086045, -0.056525},
        {0.007311, 0.066051, -0.002546},
        {-0.070927, -0.117503, -0.243215},
        {0.025803, 0.157380, -0.195713},
        {0.032236, -0.013425, -0.242066},
        {-0.114584, 0.030353, 0.140657},
        {0.031698, 0.084702, 0.117458},
        {-0.115473, -0.133208, -0.132742},
        {-0.148824, 0.017403, -0.082371},
        {-0.155635, -0.089508, -0.023824},
        {-0.010706, -0.091359, 0.011784},
        {-0.274378, -0.070226, 0.037070},
        {-0.222964, 0.150551, -0.014440},
        {0.154221, -0.125443, -0.131115},
        {0.167468, 0.017829, 0.065217},
        {-0.034381, 0.089564, 0.173762},
        {-0.078982, -0.067096, 0.134351},
        {-0.077930, -0.120112, 0.004605},
        {0.201545, 0.051700, -0.050681},
        {0.111748, -0.011760, -0.021980},
        {-0.513686, -0.726806, -0.474593},
        {0.113334, 0.102910, -0.141600},
        {-0.007643, 0.008589, 0.041988},
        {-0.029675, 0.150613, 0.155437},
        {-0.111636, -0.064335, -0.017249},
        {-0.154896, -0.194887, -0.222777},
        {-0.090520, -0.195638, -0.188456},
        {-0.166917, -0.076799, -0.118771},
        {-0.046667, 0.031507, 0.108168},
        {-0.191152, -0.134654, 0.102347},
        {0.168713, 0.053621, 0.012386},
        {-0.077382, -0.038902, -0.027904},
        {-0.034078, 0.045677, 0.128739},
        {0.122481, 0.076914, 0.065406},
        {-0.416268, -0.416275, -0.039261},
        {0.080479, -0.256450, -0.288911},
        {-0.070664, 0.027953, 0.027385},
        {0.062813, -0.054582, -0.099117},
        {0.077783, -0.080614, 0.017884},
        {-0.079797, -0.060379, 0.038437},
        {-0.267969, -0.310685, 0.113489},
        {-0.104307, -0.079404, 0.010115},
        {0.262278, 0.152741, -0.025108},
        {0.042001, 0.016085, 0.072294},
        {0.136452, 0.271421, 0.147463}
    },
    {
        {0.203069, 0.065520, -0.091472},
        {-0.129666, -0.284513, -0.208939},
        {0.091651, 0.019985, -0.289003},
        {0.105561, 0.118305, 0.019309},
        {0.027426, -0.033790, 0.033477},
        {-0.000440, 0.051422, -0.012206},
        {0.067510, 0.061421, 0.070062},
        {-0.000320, 0.014721, 0.148585},
        {0.107156, 0.089902, 0.127893},
        {0.029573, 0.042504, -0.044178},
        {0.096431, 0.054780, -0.045983},
        {-0.013131, -0.019413, -0.099392},
        {0.108188, 0.107644, 0.019940},
        {-0.167565, -0.102372, 0.061538},
        {-0.021246, -0.015303, -0.002830},
        {0.086484, -0.172520, 0.003863},
        {0.128624, -0.107796, -0.037625},
        {-0.114221, -0.214600, -0.058937},
        {0.051787, -0.074253, -0.046572},
        {-0.130841, -0.022611, 0.104736},
        {0.111234, 0.109310, -0.007875},
        {0.005254, -0.150654, -0.125038},
        {0.023939, -0.057803, -0.083639},
        {0.101919, -0.030725, -0.107344},
        {0.023158, -0.021286, -0.145349},
        {-0.050912, -0.084434, -0.212753},
        {-0.053680, 0.099067, 0.081264},
        {-0.638899, -0.318816, -0.243998},
        {-0.180662, -0.042124, -0.057815},
        {-0.389926, -0.160041, -0.155128},
        {0.127118, 0.006279, 0.085347},
        {0.242331, -0.075251, 0.022689},
        {-0.018404, -0.031818, 0.026059},
        {0.037193, 0.111519, -0.152612},
        {-0.006333, -0.096975, -0.019745},
        {0.147795, 0.050230, -0.101120},
        {0.018290, 0.146731, 0.044390},
        {-0.101540, -0.039488, -0.315538},
        {-0.104525, 0.137630, 0.097714},
        {0.056497, 0.059958, 0.101057},
        {0.062774, -0.058940, -0.031725},
        {-0.125523, -0.136715, 0.028319},
        {0.124724, 0.022451, -0.016032},
        {-0.089763, 0.187739, 0.193952},
        {0.117428, 0.015988, 0.026121},
        {-0.188020, -0.050818, 0.033282},
        {-0.544189, -0.428141, -0.100130},
        {-0.017985, -0.084033, -0.347195},
        {0.094009, -0.000094, -0.065450},
        {-0.053800, -0.002475, 0.008503},
        {-0.056301, -0.196138, -0.192876},
        {-0.071578, -0.016252, 0.036700},
        {-0.077436, 0.149208, -0.067614},
        {0.063555, -0.015258, -0.073698},
        {-0.163908, -0.195338, -0.214709},
        {-0.092241, -0.146687, -0.035573},
        {0.014565, -0.123643, -0.151414},
        {0.007671, 0.178613, 0.019864},
        {0.148509, 0.039264, -0.105944},
        {-0.081505, -0.075345, 0.020101},
        {0.001307, 0.032790, 0.094175},
        {0.175988, 0.135105, 0.066946},
        {0.010635, -0.111328, -0.011706},
        {-0.147097, -0.176431, 0.032207}
    },
    {
        {0.202624, 0.219189, 0.142221},
        {0.135095, 0.048073, -0.058736},
        {-0.067707, 0.020945, -0.230428},
        {-0.021544, -0.120008, -0.115755},
        {0.012963, 0.074379, 0.045265},
        {0.017437, -0.050151, -0.108119},
        {-0.046972, 0.033197, 0.040893},
        {-0.146823, -0.133872, -0.310066},
        {-0.039313, 0.017135, -0.026287},
        {0.112521, -0.081309, -0.026253},
        {-0.080063, -0.243626, -0.205400},
        {0.027822, 0.029197, 0.034974},
        {-0.035636, -0.230590, -0.269482},
        {-0.126449, -0.063718, 0.115294},
        {-0.176738, -0.497405, -0.457321},
        {-0.144513, 0.055029, 0.008408},
        {-0.131665, 0.158892, 0.008256},
        {-0.410252, -0.512977, -0.465470},
        {0.030293, 0.107663, -0.026655},
        {0.017632, 0.127588, 0.011486},
        {0.051773, 0.231278, 0.207049},
        {-0.001343, 0.214475, 0.103256},
        {0.261999, 0.159851, 0.018465},
        {-0.038756, -0.138735, 0.031203},
        {-0.025914, 0.011760, -0.044008},
        {-0.028402, 0.021384, -0.069671},
        {0.125347, 0.064714, -0.019441},
        {0.080637, 0.095988, -0.021400},
        {0.258594, 0.091928, 0.051546},
        {0.332140, 0.032724, -0.107695},
        {0.077470, 0.161204, 0.071066},
        {-0.055644, 0.200591, 0.119813},
        {-0.097863, -0.045650, -0.010572},
        {-0.042081, 0.052532, 0.101196},
        {0.104868, 0.016621, 0.059838},
        {-0.051468, 0.024583, -0.043623},
        {-0.109905, -0.082874, -0.057495},
        {0.073786, 0.077635, 0.146108},
        {0.015566, -0.032628, -0.059425},
        {0.029015, -0.022514, -0.090506},
        {0.064506, -0.069055, -0.229212},
        {0.019870, 0.104957, 0.067160},
        {-0.023523, 0.092023, 0.039930},
        {0.153511, 0.075944, -0.025221},
        {-0.006815, -0.088424, -0.137535},
        {-0.112172, -0.096519, -0.034406},
        {-0.106821, -0.019739, -0.068413},
        {0.240674, 0.043100, -0.124807},
        {0.086275, 0.024887, -0.047375},
        {0.000102, -0.016151, -0.046974},
        {0.034726, -0.093286, -0.209850},
        {0.006599, -0.025356, -0.043697},
        {0.048951, -0.006120, -0.076603},
        {-0.029819, 0.027525, 0.047261},
        {0.011466, -0.047521, -0.068866},
        {0.057726, 0.109160, 0.049336},
        {0.035982, 0.038566, -0.136823},
        {-0.020228, -0.018899, -0.015744},
        {0.051240, 0.027309, -0.067567},
        {-0.025993, -0.053365, -0.016572},
        {0.002723, 0.042372, -0.013810},
        {0.009433, -0.010198, -0.020859},
        {-0.203114, 0.193995, 0.073191},
        {-0.011192, 0.105342, -0.034994}
    },
    {
        {0.024013, -0.055232, -0.004409},
        {-0.218938, -0.373509, -0.256001},
        {-0.198863, -0.238692, -0.304350},
        {-0.068496, -0.146020, -0.012055},
        {-0.014367, 0.033036, -0.044439},
        {-0.040266, 0.016092, -0.107720},
        {-0.028409, 0.128843, 0.187126},
        {0.079635, 0.196155, 0.045743},
        {0.226811, -0.014247, -0.024167},
        {-0.189295, -0.126651, -0.236624},
        {-0.153461, -0.080051, -0.032996},
        {0.035469, -0.024190, -0.004499},
        {-0.150452, -0.189588, -0.034142},
        {0.039849, 0.064221, 0.081622},
        {0.078018, -0.011336, -0.085555},
        {-0.139458, 0.119219, 0.061192},
        {-0.118997, 0.040490, 0.109508},
        {-0.098151, -0.112797, 0.084239},
        {-0.087352, -0.041811, 0.093182},
        {0.126704, 0.071568, 0.081766},
        {0.033067, 0.132421, 0.072428},
        {-0.105349, 0.128704, 0.077794},
        {-0.167643, -0.100944, -0.073153},
        {0.197241, 0.091281, 0.060250},
        {-0.132216, -0.025678, -0.130195},
        {-0.037094, 0.131318, 0.006243},
        {0.111499, 0.045603, -0.064516},
        {0.017084, -0.028590, -0.114977},
        {0.033593, 0.192396, 0.086960},
        {0.148776, 0.080549, 0.110820},
        {0.049049, 0.042118, -0.120688},
        {-0.049252, 0.171034, 0.145861},
        {-0.420259, -0.266821, -0.067222},
        {0.006618, 0.019126, 0.132833},
        {0.142242, 0.210303, 0.145333},
        {0.005132, 0.063030, -0.009555},
        {-0.103942, -0.240761, -0.284656},
        {-0.024991, 0.039227, 0.032871},
        {0.140342, 0.146080, 0.117559},
        {-0.018423, 0.027837, 0.034890},
        {0.049781, -0.004052, 0.045146},
        {-0.124909, 0.313688, 0.301277},
        {-0.051440, 0.055622, 0.054028},
        {0.150221, 0.106898, 0.018780},
        {-0.053383, -0.070481, 0.019482},
        {0.163210, 0.061208, 0.019786},
        {0.097605, 0.075251, -0.016232},
        {-0.000793, 0.043262, -0.077953},
        {-0.061095, -0.181229, -0.231780},
        {0.090719, 0.195975, 0.236742},
        {-0.086186, -0.032562, -0.084991},
        {-0.011570, 0.049922, -0.064377},
        {0.003061, 0.140920, 0.020133},
        {-0.071404, -0.128591, 0.013513},
        {0.106549, -0.006086, -0.139719},
        {-0.228349, -0.291694, -0.389819},
        {0.007893, 0.080895, 0.085901},
        {0.016457, -0.035738, 0.013285},
        {0.121169, 0.070706, 0.010410},
        {0.082606, 0.095427, 0.149802},
        {0.106495, -0.027171, 0.067771},
        {0.216973, 0.231372, 0.243524},
        {-0.082048, 0.154995, 0.008014},
        {-0.324879, -0.283681, -0.336877}
    },
    {
        {0.170839, 0.160267, 0.078242},
        {0.117061, 0.045249, 0.089744},
        {0.270650, 0.197563, 0.103851},
        {0.255006, 0.173246, 0.450023},
        {0.001756, 0.030403, -0.071866},
        {0.324690, 0.113408, -0.092652},
        {0.039093, 0.064595, -0.149253},
        {-0.017456, 0.017949, 0.020832},
        {0.037382, 0.075655, 0.207738},
        {0.202538, -0.148208, -0.001361},
        {0.073831, -0.062297, 0.208300},
        {0.138035, 0.021853, -0.115484},
        {-0.264926, -0.263904, -0.066826},
        {0.229355, -0.113230, -0.048990},
        {-0.108966, -0.032918, 0.072655},
        {-0.095373, -0.116372, -0.217626},
        {-0.232971, -0.146404, -0.132112},
        {-0.281459, -0.270567, -0.222754},
        {0.107026, 0.062898, -0.120969},
        {0.091755, 0.048723, -0.181060},
        {0.009719, -0.027073, 0.115205},
        {-0.053621, -0.035780, -0.108424},
        {-0.017479, 0.044679, 0.063191},
        {-0.049049, -0.072983, 0.029046},
        {-0.297048, -0.124811, -0.101817},
        {0.284980, 0.137293, 0.113464},
        {0.080596, -0.054025, 0.052899},
        {0.103211, 0.046701, -0.083127},
        {0.074393, 0.033619, 0.115043},
        {0.022706, -0.008561, -0.055285},
        {0.022397, -0.038984, -0.003475},
        {0.055632, -0.036957, -0.004666},
        {-0.144022, -0.119752, -0.152198},
        {-0.059056, -0.070129, -0.011017},
        {-0.012162, -0.044105, 0.013990},
        {0.036021, 0.058692, 0.030318},
        {-0.075031, -0.070993, -0.080489},
        {0.019024, -0.031379, -0.170190},
        {-0.140996, -0.298473, -0.370310},
        {0.083080, -0.039163, -0.181415},
        {0.125089, -0.187914, -0.179118},
        {-0.086755, -0.236748, -0.125557},
        {0.080652, -0.033662, 0.019552},
        {0.040708, -0.114860, -0.007708},
        {0.097392, -0.033907, 0.078270},
        {0.041393, -0.294774, -0.308332},
        {0.051215, 0.002975, -0.153332},
        {-0.036375, -0.066613, -0.016173},
        {-0.043042, -0.140107, -0.053513},
        {-0.003818, 0.041144, -0.096433},
        {-0.138284, -0.169874, -0.237987},
        {-0.023175, -0.008927, -0.012030},
        {0.104621, -0.119786, -0.210213},
        {-0.002440, -0.106510, -0.124420},
        {-0.013150, -0.019407, -0.111089},
        {-0.053060, 0.022185, -0.013686},
        {0.167131, 0.035804, -0.204008},
        {0.010225, -0.198163, -0.124476},
        {0.149552, 0.079638, 0.005460},
        {-0.044062, -0.229676, -0.300104},
        {-0.039460, 0.024906, 0.127202},
        {0.134113, 0.180624, 0.185792},
        {0.197472, 0.236201, 0.120081},
        {0.177208, 0.187822, 0.215864}
    },
    {
        {0.135808, 0.096816, 0.016315},
        {0.117399, 0.288615, 0.023770},
        {-0.042892, 0.074847, -0.046138},
        {0.295600, 0.086436, -0.192429},
        {0.000975, -0.053498, -0.298745},
        {-0.008025, 0.167320, 0.168820},
        {-0.082530, 0.071070, 0.138346},
        {-0.000199, -0.104486, -0.145507},
        {-0.052312, -0.016136, -0.048765},
        {-0.077868, 0.282586, 0.503542},
        {0.142725, 0.029565, -0.237581},
        {0.176706, -0.025492, -0.184612},
        {-0.126863, -0.011550, -0.156659},
        {0.235882, 0.150488, -0.284222},
        {-0.278769, -0.452432, -0.452454},
        {0.110186, 0.043234, -0.175574},
        {-0.331964, 0.440710, 0.133027},
        {-0.233136, -0.147834, -0.164006},
        {-0.176074, -0.193083, -0.237946},
        {-0.119358, 0.026676, 0.019919},
        {-0.179715, 0.006899, -0.219823},
        {-0.350572, 0.283199, -0.147745},
        {0.286220, 0.184174, 0.105036},
        {-0.037616, 0.050235, -0.034924},
        {-0.233114, 0.189873, 0.013299},
        {0.020979, 0.178181, -0.075306},
        {-0.051477, 0.041405, -0.136789},
        {0.216105, 0.183509, 0.100241},
        {0.034841, 0.005407, -0.114049},
        {-0.094163, -0.291171, -0.299326},
        {0.108064, 0.465986, 0.154179},
        {-0.179655, 0.293812, 0.227741},
        {-0.184310, 0.035063, 0.204006},
        {0.111079, 0.067600, -0.297220},
        {-0.129277, -0.091955, -0.077026},
        {0.146698, 0.144154, -0.114274},
        {-0.356957, -0.104800, 0.023362},
        {-0.011875, 0.114839, -0.031544},
        {-0.007534, 0.134849, 0.058707},
        {0.098803, 0.101852, -0.058031},
        {-0.057103, 0.444616, 0.249885},
        {-0.216246, 0.024007, -0.047347},
        {0.052608, 0.237330, 0.198415},
        {0.015534, 0.078407, 0.032377},
        {0.307782, 0.305062, 0.031135},
        {-0.362356, -0.330554, -0.328010},
        {-0.025895, -0.127343, -0.161513},
        {0.162131, -0.095999, -0.164205},
        {-0.058335, -0.222794, -0.229520},
        {-0.112991, 0.035452, -0.223519},
        {-0.166661, -0.453640, -0.342642},
        {-0.001319, -0.036853, -0.037643},
        {-0.124264, 0.248490, 0.192355},
        {0.023782, 0.003622, -0.023959},
        {0.320160, 0.103862, -0.476919},
        {-0.136779, 0.126213, 0.174908},
        {-0.174531, -0.128249, -0.317871},
        {0.071510, 0.263935, 0.122783},
        {-0.184369, -0.229740, -0.126828},
        {0.185859, -0.019858, 0.096309},
        {-0.202098, -0.427046, -0.206194},
        {-0.098977, 0.092758, 0.389151},
        {0.067862, 0.029378, -0.002025},
        {-0.060733, -0.027534, -0.038718}
    },
    {
        {-0.027338, -0.003265, 0.111720},
        {0.218042, -0.099409, -0.207151},
        {-0.061817, -0.028979, -0.342086},
        {0.105807, -0.115027, -0.063848},
        {0.221624, 0.144773, 0.137085},
        {-0.112664, -0.013219, 0.012333},
        {-0.173580, -0.068034, -0.075225},
        {-0.046331, 0.004856, -0.014798},
        {0.156767, -0.063419, -0.068015},
        {0.209472, 0.132071, 0.108271},
        {0.142174, 0.094130, 0.261033},
        {-0.060030, -0.103389, -0.288833},
        {0.204304, 0.174820, 0.187033},
        {-0.223965, -0.108767, -0.081860},
        {-0.000366, -0.199762, -0.366069},
        {-0.015160, 0.030076, 0.180250},
        {-0.028323, 0.115777, 0.169397},
        {0.118583, -0.065150, -0.053288},
        {0.168923, -0.169812, -0.172692},
        {-0.093884, -0.088483, -0.022689},
        {0.040917, 0.274816, 0.196921},
        {-0.115884, 0.286394, 0.110101},
        {0.005531, -0.197111, 0.177983},
        {-0.068412, -0.000346, -0.105108},
        {-0.141931, 0.056819, -0.498821},
        {-0.104464, 0.340446, 0.075738},
        {-0.045918, -0.052887, -0.104769},
        {-0.084245, -0.211623, -0.151010},
        {0.009128, -0.109405, -0.215731},
        {-0.178564, -0.216001, -0.257996},
        {0.114907, 0.212941, 0.030169},
        {-0.060654, 0.189793, 0.172361},
        {-0.562833, -0.481228, -0.228315},
        {0.178606, 0.099783, 0.105887},
        {0.044646, 0.205217, 0.286571},
        {0.045057, 0.107127, -0.079673},
        {-0.078475, -0.134527, -0.002999},
        {-0.118410, 0.026887, -0.165342},
        {-0.024511, -0.010089, 0.085979},
        {-0.193899, -0.179520, -0.198121},
        {-0.299591, -0.125831, -0.046207},
        {-0.098973, 0.190140, 0.153363},
        {-0.014692, 0.064334, 0.268673},
        {0.034006, 0.048487, 0.104814},
        {0.119654, -0.086273, 0.037111},
        {-0.097194, -0.138787, -0.283145},
        {-0.001966, -0.101176, -0.108046},
        {0.014068, -0.056750, -0.068697},
        {0.047266, -0.163805, -0.039797},
        {-0.079396, 0.027540, 0.041824},
        {0.042979, -0.012752, -0.025935},
        {0.185834, 0.084150, -0.020300},
        {-0.178482, 0.270148, -0.094131},
        {-0.191290, -0.279782, -0.314424},
        {0.149846, 0.073016, 0.089918},
        {-0.102934, -0.169652, -0.045959},
        {0.174002, -0.059193, -0.256494},
        {-0.222985, -0.035440, -0.087405},
        {-0.030370, -0.026602, -0.129966},
        {0.069318, -0.056309, -0.038023},
        {0.148090, 0.031410, 0.081363},
        {-0.037960, -0.125352, -0.026784},
        {0.015452, 0.125736, 0.186625},
        {-0.166249, -0.262393, -0.013832}
    },
    {
        {0.025881, 0.020254, 0.019108},
        {-0.367652, -0.178048, -0.141592},
        {-0.048937, 0.093587, 0.126980},
        {0.038293, 0.299179, 0.308665},
        {-0.359846, -0.199921, 0.047889},
        {-0.140756, -0.187660, -0.224759},
        {0.113821, -0.120743, -0.287872},
        {-0.008710, 0.207262, 0.092579},
        {0.040422, 0.203319, 0.113282},
        {0.057552, 0.053691, 0.056949},
        {0.054738, 0.161456, 0.051600},
        {0.046461, 0.005858, -0.332119},
        {-0.012679, -0.015394, -0.023033},
        {-0.101944, 0.194887, -0.033926},
        {0.138136, 0.339070, 0.030804},
        {0.080716, 0.133696, 0.017758},
        {-0.056132, -0.114271, -0.202717},
        {0.124508, 0.109258, -0.048552},
        {0.205475, 0.228543, 0.159067},
        {0.158173, 0.138682, -0.038148},
        {-0.057891, 0.148275, 0.016699},
        {-0.155107, -0.352456, -0.182080},
        {-0.014122, 0.031196, -0.029391},
        {-0.126631, -0.093483, 0.012981},
        {-0.177374, 0.053887, -0.156320},
        {-0.077407, 0.053411, -0.020176},
        {-0.255669, 0.051369, -0.180241},
        {-0.027222, -0.229566, -0.366914},
        {0.101391, 0.299607, -0.017636},
        {0.152776, 0.290937, 0.030888},
        {0.114179, -0.075533, -0.161032},
        {-0.251671, -0.248234, -0.158191},
        {0.100631, 0.012999, -0.008201},
        {0.022220, 0.045999, -0.029593},
        {-0.136866, 0.142944, 0.085780},
        {-0.047118, 0.139520, -0.041483},
        {0.230553, 0.199259, 0.277438},
        {0.009016, 0.230300, 0.092342},
        {0.258284, 0.196739, 0.017421},
        {0.319457, 0.270486, 0.342649},
        {0.020408, -0.043800, -0.074104},
        {-0.023070, 0.159816, 0.107013},
        {-0.282868, -0.147600, -0.091257},
        {0.148139, 0.176170, -0.061121},
        {-0.141429, 0.076326, 0.041598},
        {-0.305390, -0.296707, -0.234624},
        {0.082020, 0.028228, -0.188699},
        {-0.016449, 0.251095, 0.240492},
        {-0.027450, -0.001416, -0.063020},
        {0.186189, -0.011436, -0.288027},
        {-0.105908, 0.018038, -0.169015},
        {0.219266, 0.392945, 0.135847},
        {0.051375, 0.191613, 0.098149},
        {-0.065362, 0.007520, -0.075277},
        {0.109025, -0.070377, -0.302110},
        {0.011399, -0.107170, 0.001281},
        {-0.118164, -0.004977, -0.060385},
        {-0.003186, 0.095416, 0.017333},
        {-0.136372, 0.008677, -0.003440},
        {-0.009219, -0.010595, -0.161246},
        {-0.148585, 0.049372, -0.085507},
        {0.077510, 0.125386, -0.111983},
